{"learner":{"attributes":{"scikit_learn":"{\"_estimator_type\": \"regressor\"}"},"feature_names":[],"feature_types":[],"gradient_booster":{"model":{"cats":{"enc":[],"feature_segments":[],"sorted_idx":[]},"gbtree_model_param":{"num_parallel_tree":"1","num_trees":"250"},"iteration_indptr":[0,1,2,3,4,5,6,7,8,9,10,11,12,13,14,15,16,17,18,19,20,21,22,23,24,25,26,27,28,29,30,31,32,33,34,35,36,37,38,39,40,41,42,43,44,45,46,47,48,49,50,51,52,53,54,55,56,57,58,59,60,61,62,63,64,65,66,67,68,69,70,71,72,73,74,75,76,77,78,79,80,81,82,83,84,85,86,87,88,89,90,91,92,93,94,95,96,97,98,99,100,101,102,103,104,105,106,107,108,109,110,111,112,113,114,115,116,117,118,119,120,121,122,123,124,125,126,127,128,129,130,131,132,133,134,135,136,137,138,139,140,141,142,143,144,145,146,147,148,149,150,151,152,153,154,155,156,157,158,159,160,161,162,163,164,165,166,167,168,169,170,171,172,173,174,175,176,177,178,179,180,181,182,183,184,185,186,187,188,189,190,191,192,193,194,195,196,197,198,199,200,201,202,203,204,205,206,207,208,209,210,211,212,213,214,215,216,217,218,219,220,221,222,223,224,225,226,227,228,229,230,231,232,233,234,235,236,237,238,239,240,241,242,243,244,245,246,247,248,249,250],"tree_info":[0,0,0,0,0,0,0,0,0,0,0,0,0,0,0,0,0,0,0,0,0,0,0,0,0,0,0,0,0,0,0,0,0,0,0,0,0,0,0,0,0,0,0,0,0,0,0,0,0,0,0,0,0,0,0,0,0,0,0,0,0,0,0,0,0,0,0,0,0,0,0,0,0,0,0,0,0,0,0,0,0,0,0,0,0,0,0,0,0,0,0,0,0,0,0,0,0,0,0,0,0,0,0,0,0,0,0,0,0,0,0,0,0,0,0,0,0,0,0,0,0,0,0,0,0,0,0,0,0,0,0,0,0,0,0,0,0,0,0,0,0,0,0,0,0,0,0,0,0,0,0,0,0,0,0,0,0,0,0,0,0,0,0,0,0,0,0,0,0,0,0,0,0,0,0,0,0,0,0,0,0,0,0,0,0,0,0,0,0,0,0,0,0,0,0,0,0,0,0,0,0,0,0,0,0,0,0,0,0,0,0,0,0,0,0,0,0,0,0,0,0,0,0,0,0,0,0,0,0,0,0,0,0,0,0,0,0,0,0,0,0,0,0,0,0,0,0,0,0,0],"trees":[{"base_weights":[1.31055545E-2,9.0153456E-1,-1.7805915E-1,1.7877576E0,6.462731E-1,-3.2983178E-1,3.4056854E-1,1.0559397E-1,7.066042E-2,2.2164544E-2,5.3848524E-2,-2.6514148E-2,-4.061632E-3,7.2781774E-3,4.1346133E-2],"categories":[],"categories_nodes":[],"categories_segments":[],"categories_sizes":[],"default_left":[0,0,0,0,0,0,0,0,0,0,0,0,0,0,0],"id":0,"left_children":[1,3,5,7,9,11,13,-1,-1,-1,-1,-1,-1,-1,-1],"loss_changes":[6.7618115E2,1.5808539E2,2.5797668E2,1.5722626E1,4.7366272E1,1.2621988E2,7.015476E1,0E0,0E0,0E0,0E0,0E0,0E0,0E0,0E0],"parents":[2147483647,0,0,1,1,2,2,3,3,4,4,5,5,6,6],"right_children":[2,4,6,8,10,12,14,-1,-1,-1,-1,-1,-1,-1,-1],"split_conditions":[4.49E0,9.9E-1,1E0,4.7E-1,1E0,1E0,2E0,1.0559397E-1,7.066042E-2,2.2164544E-2,5.3848524E-2,-2.6514148E-2,-4.061632E-3,7.2781774E-3,4.1346133E-2],"split_indices":[2,2,1,2,1,6,1,0,0,0,0,0,0,0,0],"split_type":[0,0,0,0,0,0,0,0,0,0,0,0,0,0,0],"sum_hessian":[3.979E3,7.04E2,3.275E3,1.56E2,5.48E2,2.534E3,7.41E2,8.1E1,7.5E1,3.74E2,1.74E2,1.402E3,1.132E3,5.3E2,2.11E2],"tree_param":{"num_deleted":"0","num_feature":"28","num_nodes":"15","size_leaf_vector":"1"}},{"base_weights":[1.1074978E-2,7.254992E-1,-2.0443884E-1,1.4899361E0,4.7790065E-1,-2.778818E-1,1.0056585E0,1.042157E-1,6.1740905E-2,1.8311752E-2,6.233241E-2,-2.0593856E-2,1.0275664E-2,5.9578907E-2,2.9375767E-2],"categories":[],"categories_nodes":[],"categories_segments":[],"categories_sizes":[],"default_left":[0,0,0,0,0,0,0,0,0,0,0,0,0,0,0],"id":1,"left_children":[1,3,5,7,9,11,13,-1,-1,-1,-1,-1,-1,-1,-1],"loss_changes":[6.1253235E2,1.7360126E2,2.7180292E2,3.1212524E1,5.9300293E1,1.8678014E2,1.27267E1,0E0,0E0,0E0,0E0,0E0,0E0,0E0,0E0],"parents":[2147483647,0,0,1,1,2,2,3,3,4,4,5,5,6,6],"right_children":[2,4,6,8,10,12,14,-1,-1,-1,-1,-1,-1,-1,-1],"split_conditions":[6.13E0,1.35E0,1E0,3.9E-1,2E0,1E0,2.899E0,1.042157E-1,6.1740905E-2,1.8311752E-2,6.233241E-2,-2.0593856E-2,1.0275664E-2,5.9578907E-2,2.9375767E-2],"split_indices":[2,2,5,2,1,1,9,0,0,0,0,0,0,0,0],"split_type":[0,0,0,0,0,0,0,0,0,0,0,0,0,0,0],"sum_hessian":[3.976E3,9.21E2,3.055E3,2.24E2,6.97E2,2.881E3,1.74E2,6.5E1,1.59E2,6.1E2,8.7E1,2.256E3,6.25E2,1.19E2,5.5E1],"tree_param":{"num_deleted":"0","num_feature":"28","num_nodes":"15","size_leaf_vector":"1"}},{"base_weights":[-4.822712E-3,8.515863E-1,-1.6884965E-1,1.671241E0,6.368096E-1,-3.0608845E-1,2.9591963E-1,1.03096984E-1,6.968658E-2,2.2642422E-2,5.034516E-2,-2.183423E-2,1.1979834E-3,-5.318742E-3,2.5932902E-2],"categories":[],"categories_nodes":[],"categories_segments":[],"categories_sizes":[],"default_left":[0,0,0,0,0,0,0,0,0,0,0,0,0,0,0],"id":2,"left_children":[1,3,5,7,9,11,13,-1,-1,-1,-1,-1,-1,-1,-1],"loss_changes":[5.628149E2,1.1207645E2,2.1459846E2,1.1200836E1,3.425647E1,1.11990234E2,6.882452E1,0E0,0E0,0E0,0E0,0E0,0E0,0E0,0E0],"parents":[2147483647,0,0,1,1,2,2,3,3,4,4,5,5,6,6],"right_children":[2,4,6,8,10,12,14,-1,-1,-1,-1,-1,-1,-1,-1],"split_conditions":[4.11E0,9E-1,1E0,3.1E-1,1E0,6.35E-1,3.9185307E1,1.03096984E-1,6.968658E-2,2.2642422E-2,5.034516E-2,-2.183423E-2,1.1979834E-3,-5.318742E-3,2.5932902E-2],"split_indices":[2,2,1,2,1,4,26,0,0,0,0,0,0,0,0],"split_type":[0,0,0,0,0,0,0,0,0,0,0,0,0,0,0],"sum_hessian":[4.005E3,6.43E2,3.362E3,1.32E2,5.11E2,2.596E3,7.66E2,5.2E1,8E1,3.43E2,1.68E2,1.86E3,7.36E2,2.73E2,4.93E2],"tree_param":{"num_deleted":"0","num_feature":"28","num_nodes":"15","size_leaf_vector":"1"}},{"base_weights":[6.267856E-3,6.749509E-1,-1.9417697E-1,1.5321633E0,4.8029E-1,-2.5978994E-1,9.935129E-1,9.7711995E-2,6.599005E-2,1.8963594E-2,5.6214314E-2,-1.8993983E-2,8.56962E-3,5.7997268E-2,2.7973864E-2],"categories":[],"categories_nodes":[],"categories_segments":[],"categories_sizes":[],"default_left":[0,0,0,0,0,0,0,0,0,0,0,0,0,0,0],"id":3,"left_children":[1,3,5,7,9,11,13,-1,-1,-1,-1,-1,-1,-1,-1],"loss_changes":[5.3872797E2,1.537474E2,2.4113766E2,1.2420654E1,4.867012E1,1.5185478E2,1.0881592E1,0E0,0E0,0E0,0E0,0E0,0E0,0E0,0E0],"parents":[2147483647,0,0,1,1,2,2,3,3,4,4,5,5,6,6],"right_children":[2,4,6,8,10,12,14,-1,-1,-1,-1,-1,-1,-1,-1],"split_conditions":[6.24E0,9.9E-1,1E0,3.1E-1,2E0,1E0,3.642E0,9.7711995E-2,6.599005E-2,1.8963594E-2,5.6214314E-2,-1.8993983E-2,8.56962E-3,5.7997268E-2,2.7973864E-2],"split_indices":[2,2,5,2,1,1,9,0,0,0,0,0,0,0,0],"split_type":[0,0,0,0,0,0,0,0,0,0,0,0,0,0,0],"sum_hessian":[4.017E3,9.26E2,3.091E3,1.7E2,7.56E2,2.93E3,1.61E2,5.4E1,1.16E2,6.55E2,1.01E2,2.292E3,6.38E2,1.15E2,4.6E1],"tree_param":{"num_deleted":"0","num_feature":"28","num_nodes":"15","size_leaf_vector":"1"}},{"base_weights":[-4.8307823E-3,-8.23587E-2,9.61729E-1,-1.4157829E-1,9.553763E-1,7.614946E-1,1.309234E0,-1.32260565E-2,9.5101865E-3,5.4154523E-2,2.2337958E-2,-1.0261963E-2,4.0829584E-2,5.9813805E-2,8.678937E-2],"categories":[],"categories_nodes":[],"categories_segments":[],"categories_sizes":[],"default_left":[0,0,0,0,0,0,0,0,0,0,0,0,0,0,0],"id":4,"left_children":[1,3,5,7,9,11,13,-1,-1,-1,-1,-1,-1,-1,-1],"loss_changes":[2.9973273E2,2.2768037E2,1.9461945E1,1.4302748E2,1.235466E1,1.0402199E1,2.785843E0,0E0,0E0,0E0,0E0,0E0,0E0,0E0,0E0],"parents":[2147483647,0,0,1,1,2,2,3,3,4,4,5,5,6,6],"right_children":[2,4,6,8,10,12,14,-1,-1,-1,-1,-1,-1,-1,-1],"split_conditions":[2E0,1E0,9.5E-1,6.8E-1,5.583E0,-8.7903694E1,1E0,-1.32260565E-2,9.5101865E-3,5.4154523E-2,2.2337958E-2,-1.0261963E-2,4.0829584E-2,5.9813805E-2,8.678937E-2],"split_indices":[1,5,4,4,9,27,5,0,0,0,0,0,0,0,0],"split_type":[0,0,0,0,0,0,0,0,0,0,0,0,0,0,0],"sum_hessian":[3.999E3,3.703E3,2.96E2,3.504E3,1.99E2,1.9E2,1.06E2,2.557E3,9.47E2,1.58E2,4.1E1,1E1,1.8E2,8.7E1,1.9E1],"tree_param":{"num_deleted":"0","num_feature":"28","num_nodes":"15","size_leaf_vector":"1"}},{"base_weights":[-1.3666241E-2,6.0420704E-1,-1.9919664E-1,1.2052014E0,3.8333565E-1,-2.6059788E-1,9.22764E-1,8.063274E-2,4.7484E-2,1.1122904E-2,3.8311042E-2,-1.8492533E-2,7.191259E-3,4.9478766E-2,1.0214142E-2],"categories":[],"categories_nodes":[],"categories_segments":[],"categories_sizes":[],"default_left":[0,0,0,0,0,0,0,0,0,0,0,0,0,0,0],"id":5,"left_children":[1,3,5,7,9,11,13,-1,-1,-1,-1,-1,-1,-1,-1],"loss_changes":[4.5919016E2,1.22165924E2,2.1242374E2,2.4032288E1,4.1493874E1,1.291824E2,7.358902E0,0E0,0E0,0E0,0E0,0E0,0E0,0E0,0E0],"parents":[2147483647,0,0,1,1,2,2,3,3,4,4,5,5,6,6],"right_children":[2,4,6,8,10,12,14,-1,-1,-1,-1,-1,-1,-1,-1],"split_conditions":[6.24E0,1.52E0,1E0,6E-1,1E0,1E0,5.358E1,8.063274E-2,4.7484E-2,1.1122904E-2,3.8311042E-2,-1.8492533E-2,7.191259E-3,4.9478766E-2,1.0214142E-2],"split_indices":[2,2,5,2,1,1,8,0,0,0,0,0,0,0,0],"split_type":[0,0,0,0,0,0,0,0,0,0,0,0,0,0,0],"sum_hessian":[4.004E3,9.24E2,3.08E3,2.47E2,6.77E2,2.921E3,1.59E2,9.3E1,1.54E2,4.78E2,1.99E2,2.3E3,6.21E2,1.45E2,1.4E1],"tree_param":{"num_deleted":"0","num_feature":"28","num_nodes":"15","size_leaf_vector":"1"}},{"base_weights":[5.775069E-4,5.542965E-1,-1.8538809E-1,1.2797545E0,3.8792902E-1,-2.4406613E-1,8.554849E-1,8.568454E-2,5.5565625E-2,1.50570115E-2,5.0222885E-2,-1.7869698E-2,1.1143775E-2,4.7629345E-2,1.919521E-2],"categories":[],"categories_nodes":[],"categories_segments":[],"categories_sizes":[],"default_left":[0,0,0,0,0,0,0,0,0,0,0,0,0,0,0],"id":6,"left_children":[1,3,5,7,9,11,13,-1,-1,-1,-1,-1,-1,-1,-1],"loss_changes":[4.0955908E2,1.2002936E2,1.8197208E2,1.1408386E1,4.317581E1,1.4926743E2,6.7814865E0,0E0,0E0,0E0,0E0,0E0,0E0,0E0,0E0],"parents":[2147483647,0,0,1,1,2,2,3,3,4,4,5,5,6,6],"right_children":[2,4,6,8,10,12,14,-1,-1,-1,-1,-1,-1,-1,-1],"split_conditions":[6.75E0,1.2E0,1E0,3.1E-1,2E0,8.83E-1,5.583E0,8.568454E-2,5.5565625E-2,1.50570115E-2,5.0222885E-2,-1.7869698E-2,1.1143775E-2,4.7629345E-2,1.919521E-2],"split_indices":[2,2,5,2,1,4,9,0,0,0,0,0,0,0,0],"split_type":[0,0,0,0,0,0,0,0,0,0,0,0,0,0,0],"sum_hessian":[3.975E3,9.99E2,2.976E3,1.85E2,8.14E2,2.818E3,1.58E2,4.9E1,1.36E2,7.15E2,9.9E1,2.268E3,5.5E2,1.3E2,2.8E1],"tree_param":{"num_deleted":"0","num_feature":"28","num_nodes":"15","size_leaf_vector":"1"}},{"base_weights":[-5.9952196E-3,-7.5491436E-2,8.6250925E-1,-1.2530845E-1,8.4977704E-1,-1.5834098E-1,9.135628E-1,-1.2832574E-2,7.2953054E-3,4.76115E-2,2.047894E-2,1.1126256E-2,-2.2404391E-2,4.1809626E-2,7.380103E-2],"categories":[],"categories_nodes":[],"categories_segments":[],"categories_sizes":[],"default_left":[0,0,0,0,0,0,0,0,0,0,0,0,0,0,0],"id":7,"left_children":[1,3,5,7,9,11,13,-1,-1,-1,-1,-1,-1,-1,-1],"loss_changes":[2.4359038E2,1.7233383E2,1.5803467E1,1.26435875E2,8.08783E0,1.7775881E0,1.0937027E1,0E0,0E0,0E0,0E0,0E0,0E0,0E0,0E0],"parents":[2147483647,0,0,1,1,2,2,3,3,4,4,5,5,6,6],"right_children":[2,4,6,8,10,12,14,-1,-1,-1,-1,-1,-1,-1,-1],"split_conditions":[2E0,1E0,3.443801E1,5.97E-1,5.583E0,5.447E3,1E0,-1.2832574E-2,7.2953054E-3,4.76115E-2,2.047894E-2,1.1126256E-2,-2.2404391E-2,4.1809626E-2,7.380103E-2],"split_indices":[1,5,26,4,9,3,5,0,0,0,0,0,0,0,0],"split_type":[0,0,0,0,0,0,0,0,0,0,0,0,0,0,0],"sum_hessian":[4.035E3,3.737E3,2.98E2,3.547E3,1.9E2,1.4E1,2.84E2,2.39E3,1.157E3,1.53E2,3.7E1,6E0,8E0,2.52E2,3.2E1],"tree_param":{"num_deleted":"0","num_feature":"28","num_nodes":"15","size_leaf_vector":"1"}},{"base_weights":[8.161872E-4,4.9901864E-1,-1.9354486E-1,1.1105998E0,3.1118026E-1,-2.472865E-1,7.6429194E-1,7.826661E-2,4.4703584E-2,8.228901E-3,3.2499585E-2,-2.14723E-2,-3.8490925E-4,4.2316392E-2,1.27949715E-2],"categories":[],"categories_nodes":[],"categories_segments":[],"categories_sizes":[],"default_left":[0,0,0,0,0,0,0,0,0,0,0,0,0,0,0],"id":8,"left_children":[1,3,5,7,9,11,13,-1,-1,-1,-1,-1,-1,-1,-1],"loss_changes":[3.898725E2,1.2932483E2,1.49211E2,2.4447052E1,4.282624E1,1.1966649E2,6.0959854E0,0E0,0E0,0E0,0E0,0E0,0E0,0E0,0E0],"parents":[2147483647,0,0,1,1,2,2,3,3,4,4,5,5,6,6],"right_children":[2,4,6,8,10,12,14,-1,-1,-1,-1,-1,-1,-1,-1],"split_conditions":[7.67E0,1.6E0,1E0,4.7E-1,1E0,1E0,1.3355E3,7.826661E-2,4.4703584E-2,8.228901E-3,3.2499585E-2,-2.14723E-2,-3.8490925E-4,4.2316392E-2,1.27949715E-2],"split_indices":[2,2,5,2,1,6,11,0,0,0,0,0,0,0,0],"split_type":[0,0,0,0,0,0,0,0,0,0,0,0,0,0,0],"sum_hessian":[4.024E3,1.129E3,2.895E3,2.64E2,8.65E2,2.742E3,1.53E2,8.3E1,1.81E2,6.05E2,2.6E2,1.557E3,1.185E3,1.31E2,2.2E1],"tree_param":{"num_deleted":"0","num_feature":"28","num_nodes":"15","size_leaf_vector":"1"}},{"base_weights":[2.0993664E-3,4.119613E-1,-2.0279495E-1,1.0152953E0,2.5237513E-1,-2.5047463E-1,7.0855236E-1,7.0871234E-2,4.046708E-2,8.367988E-3,4.339881E-2,-2.1607708E-2,-1.037889E-3,3.9072335E-2,3.8176842E-3],"categories":[],"categories_nodes":[],"categories_segments":[],"categories_sizes":[],"default_left":[0,0,0,0,0,0,0,0,0,0,0,0,0,0,0],"id":9,"left_children":[1,3,5,7,9,11,13,-1,-1,-1,-1,-1,-1,-1,-1],"loss_changes":[3.366058E2,1.282521E2,1.1623743E2,2.1736877E1,5.51222E1,1.0595224E2,5.9836884E0,0E0,0E0,0E0,0E0,0E0,0E0,0E0,0E0],"parents":[2147483647,0,0,1,1,2,2,3,3,4,4,5,5,6,6],"right_children":[2,4,6,8,10,12,14,-1,-1,-1,-1,-1,-1,-1,-1],"split_conditions":[9.81E0,1.71E0,1E0,6E-1,2E0,1E0,1.5314E3,7.0871234E-2,4.046708E-2,8.367988E-3,4.339881E-2,-2.1607708E-2,-1.037889E-3,3.9072335E-2,3.8176842E-3],"split_indices":[2,2,5,2,1,6,11,0,0,0,0,0,0,0,0],"split_type":[0,0,0,0,0,0,0,0,0,0,0,0,0,0,0],"sum_hessian":[4.006E3,1.335E3,2.671E3,2.78E2,1.057E3,2.539E3,1.32E2,9.2E1,1.86E2,9.3E2,1.27E2,1.417E3,1.122E3,1.18E2,1.4E1],"tree_param":{"num_deleted":"0","num_feature":"28","num_nodes":"15","size_leaf_vector":"1"}},{"base_weights":[-0E0,8.070223E-1,-1.0243366E-1,1.3312304E0,6.576525E-1,-2.180504E-1,2.7989608E-1,1.7463358E-2,6.895967E-2,3.8202014E-2,1.3461907E-2,-1.2994832E-2,3.0602837E-2,-2.1931555E-3,2.343343E-2],"categories":[],"categories_nodes":[],"categories_segments":[],"categories_sizes":[],"default_left":[0,0,0,0,0,0,0,0,0,0,0,0,0,0,0],"id":10,"left_children":[1,3,5,7,9,11,13,-1,-1,-1,-1,-1,-1,-1,-1],"loss_changes":[3.280795E2,3.3926117E1,1.5574036E2,3.9610138E0,1.4153839E1,9.408705E1,5.0056602E1,0E0,0E0,0E0,0E0,0E0,0E0,0E0,0E0],"parents":[2147483647,0,0,1,1,2,2,3,3,4,4,5,5,6,6],"right_children":[2,4,6,8,10,12,14,-1,-1,-1,-1,-1,-1,-1,-1],"split_conditions":[2.78E0,6E-1,1E0,-1.1714002E2,2.491E1,1E0,3.956156E1,1.7463358E-2,6.895967E-2,3.8202014E-2,1.3461907E-2,-1.2994832E-2,3.0602837E-2,-2.1931555E-3,2.343343E-2],"split_indices":[2,2,1,27,8,5,26,0,0,0,0,0,0,0,0],"split_type":[0,0,0,0,0,0,0,0,0,0,0,0,0,0,0],"sum_hessian":[3.967E3,4.46E2,3.521E3,9.7E1,3.49E2,2.704E3,8.17E2,5E0,9.2E1,2.73E2,7.6E1,2.575E3,1.29E2,3.01E2,5.16E2],"tree_param":{"num_deleted":"0","num_feature":"28","num_nodes":"15","size_leaf_vector":"1"}},{"base_weights":[1.8059548E-3,4.000266E-1,-1.8059707E-1,9.4893587E-1,2.587232E-1,-2.5857514E-1,4.1683173E-1,6.399884E-2,3.980602E-2,3.3867199E-3,2.2898924E-2,-2.1935651E-2,-1.6534772E-3,9.254257E-3,3.135936E-2],"categories":[],"categories_nodes":[],"categories_segments":[],"categories_sizes":[],"default_left":[0,0,0,0,0,0,0,0,0,0,0,0,0,0,0],"id":11,"left_children":[1,3,5,7,9,11,13,-1,-1,-1,-1,-1,-1,-1,-1],"loss_changes":[2.8969653E2,9.681984E1,1.275056E2,1.1723923E1,3.789582E1,9.8243774E1,1.5207428E1,0E0,0E0,0E0,0E0,0E0,0E0,0E0,0E0],"parents":[2147483647,0,0,1,1,2,2,3,3,4,4,5,5,6,6],"right_children":[2,4,6,8,10,12,14,-1,-1,-1,-1,-1,-1,-1,-1],"split_conditions":[8.76E0,1.52E0,1.167E0,4.7E-1,4.0534164E1,1E0,3.9997166E1,6.399884E-2,3.980602E-2,3.3867199E-3,2.2898924E-2,-2.1935651E-2,-1.6534772E-3,9.254257E-3,3.135936E-2],"split_indices":[2,2,4,2,26,6,26,0,0,0,0,0,0,0,0],"split_type":[0,0,0,0,0,0,0,0,0,0,0,0,0,0,0],"sum_hessian":[3.986E3,1.252E3,2.734E3,2.55E2,9.97E2,2.419E3,3.15E2,7.8E1,1.77E2,5.1E2,4.87E2,1.344E3,1.075E3,1.51E2,1.64E2],"tree_param":{"num_deleted":"0","num_feature":"28","num_nodes":"15","size_leaf_vector":"1"}},{"base_weights":[1.9533818E-3,3.4103537E-1,-1.9133145E-1,9.819806E-1,2.4301748E-1,-3.805546E-1,2.0989953E-2,7.358906E-2,4.2746004E-2,9.459298E-3,4.8274543E-2,-2.9215349E-2,-5.3908266E-3,-4.103012E-3,1.7932981E-2],"categories":[],"categories_nodes":[],"categories_segments":[],"categories_sizes":[],"default_left":[0,0,0,0,0,0,0,0,0,0,0,0,0,0,0],"id":12,"left_children":[1,3,5,7,9,11,13,-1,-1,-1,-1,-1,-1,-1,-1],"loss_changes":[2.6191013E2,9.079663E1,1.02292175E2,1.0458084E1,4.8705597E1,7.466638E1,4.1813396E1,0E0,0E0,0E0,0E0,0E0,0E0,0E0,0E0],"parents":[2147483647,0,0,1,1,2,2,3,3,4,4,5,5,6,6],"right_children":[2,4,6,8,10,12,14,-1,-1,-1,-1,-1,-1,-1,-1],"split_conditions":[1.116E1,1.2E0,4.12E-1,2.3E-1,1E0,1E0,1.167E0,7.358906E-2,4.2746004E-2,9.459298E-3,4.8274543E-2,-2.9215349E-2,-5.3908266E-3,-4.103012E-3,1.7932981E-2],"split_indices":[2,2,4,2,5,6,4,0,0,0,0,0,0,0,0],"split_type":[0,0,0,0,0,0,0,0,0,0,0,0,0,0,0],"sum_hessian":[3.994E3,1.45E3,2.544E3,1.91E2,1.259E3,1.345E3,1.199E3,3.7E1,1.54E2,1.173E3,8.6E1,7.69E2,5.76E2,9.19E2,2.8E2],"tree_param":{"num_deleted":"0","num_feature":"28","num_nodes":"15","size_leaf_vector":"1"}},{"base_weights":[-2.5291182E-3,6.9648075E-1,-9.592989E-2,1.0984224E0,5.245883E-1,-1.4162652E-1,7.066258E-1,6.7175835E-2,4.708779E-2,3.1025413E-2,8.71998E-3,-1.1827748E-2,1.1822458E-2,3.1470884E-2,6.0512837E-2],"categories":[],"categories_nodes":[],"categories_segments":[],"categories_sizes":[],"default_left":[0,0,0,0,0,0,0,0,0,0,0,0,0,0,0],"id":13,"left_children":[1,3,5,7,9,11,13,-1,-1,-1,-1,-1,-1,-1,-1],"loss_changes":[2.6089786E2,3.1803223E1,1.2935643E2,3.8819427E0,1.0964195E1,1.1982133E2,6.4423065E0,0E0,0E0,0E0,0E0,0E0,0E0,0E0,0E0],"parents":[2147483647,0,0,1,1,2,2,3,3,4,4,5,5,6,6],"right_children":[2,4,6,8,10,12,14,-1,-1,-1,-1,-1,-1,-1,-1],"split_conditions":[2.98E0,9E-1,1E0,3.1E-1,2.76E1,8.83E-1,1.262E0,6.7175835E-2,4.708779E-2,3.1025413E-2,8.71998E-3,-1.1827748E-2,1.1822458E-2,3.1470884E-2,6.0512837E-2],"split_indices":[2,2,5,2,8,4,4,0,0,0,0,0,0,0,0],"split_type":[0,0,0,0,0,0,0,0,0,0,0,0,0,0,0],"sum_hessian":[3.995E3,4.7E2,3.525E3,1.39E2,3.31E2,3.336E3,1.89E2,5.1E1,8.8E1,2.59E2,7.2E1,2.667E3,6.69E2,1.66E2,2.3E1],"tree_param":{"num_deleted":"0","num_feature":"28","num_nodes":"15","size_leaf_vector":"1"}},{"base_weights":[1.6185485E-3,-1.1504287E-1,3.6420265E-1,-2.6710567E-1,8.460149E-2,1.88645E-2,5.1203144E-1,-1.9918827E-2,1.0466414E-3,9.791511E-3,-9.597917E-3,-1.4546309E-3,4.613351E-2,-1.1547446E-2,2.8801879E-2],"categories":[],"categories_nodes":[],"categories_segments":[],"categories_sizes":[],"default_left":[0,0,0,0,0,0,0,0,0,0,0,0,0,0,0],"id":14,"left_children":[1,3,5,7,9,11,13,-1,-1,-1,-1,-1,-1,-1,-1],"loss_changes":[1.702803E2,9.248242E1,4.9967148E1,6.542138E1,4.055074E1,1.2902657E1,3.2790497E1,0E0,0E0,0E0,0E0,0E0,0E0,0E0,0E0],"parents":[2147483647,0,0,1,1,2,2,3,3,4,4,5,5,6,6],"right_children":[2,4,6,8,10,12,14,-1,-1,-1,-1,-1,-1,-1,-1],"split_conditions":[1E0,1E0,3.9185307E1,5.97E-1,2.163E1,3E0,-8.7903694E1,-1.9918827E-2,1.0466414E-3,9.791511E-3,-9.597917E-3,-1.4546309E-3,4.613351E-2,-1.1547446E-2,2.8801879E-2],"split_indices":[1,6,26,4,8,1,27,0,0,0,0,0,0,0,0],"split_type":[0,0,0,0,0,0,0,0,0,0,0,0,0,0,0],"sum_hessian":[4.023E3,3.044E3,9.79E2,1.728E3,1.316E3,2.94E2,6.85E2,1.187E3,5.41E2,9.39E2,3.77E2,2.8E2,1.4E1,5.4E1,6.31E2],"tree_param":{"num_deleted":"0","num_feature":"28","num_nodes":"15","size_leaf_vector":"1"}},{"base_weights":[3.8819257E-3,5.56712E-1,-9.697581E-2,9.72422E-1,4.3470693E-1,-1.9591278E-1,2.3583147E-1,6.963476E-2,4.163912E-2,2.6905015E-2,7.155598E-3,-1.7494798E-2,2.317701E-4,8.602148E-3,4.2276155E-2],"categories":[],"categories_nodes":[],"categories_segments":[],"categories_sizes":[],"default_left":[0,0,0,0,0,0,0,0,0,0,0,0,0,0,0],"id":15,"left_children":[1,3,5,7,9,11,13,-1,-1,-1,-1,-1,-1,-1,-1],"loss_changes":[2.2296144E2,3.0730011E1,1.113682E2,6.775116E0,1.4296234E1,8.054302E1,2.989355E1,0E0,0E0,0E0,0E0,0E0,0E0,0E0,0E0],"parents":[2147483647,0,0,1,1,2,2,3,3,4,4,5,5,6,6],"right_children":[2,4,6,8,10,12,14,-1,-1,-1,-1,-1,-1,-1,-1],"split_conditions":[3.9E0,9E-1,1E0,2.3E-1,2.391E1,1E0,3E0,6.963476E-2,4.163912E-2,2.6905015E-2,7.155598E-3,-1.7494798E-2,2.317701E-4,8.602148E-3,4.2276155E-2],"split_indices":[2,2,1,2,8,6,1,0,0,0,0,0,0,0,0],"split_type":[0,0,0,0,0,0,0,0,0,0,0,0,0,0,0],"sum_hessian":[3.996E3,6.16E2,3.38E3,1.38E2,4.78E2,2.606E3,7.74E2,3.2E1,1.06E2,3.52E2,1.26E2,1.474E3,1.132E3,7.02E2,7.2E1],"tree_param":{"num_deleted":"0","num_feature":"28","num_nodes":"15","size_leaf_vector":"1"}},{"base_weights":[-2.0419185E-3,2.5992164E-1,-2.0674467E-1,7.34213E-1,1.5683697E-1,-3.5880962E-1,-1.8745521E-2,5.1778264E-2,2.9440826E-2,1.5097976E-3,2.3610068E-2,-2.0118278E-2,2.6627077E-2,4.0764366E-3,-1.4309804E-2],"categories":[],"categories_nodes":[],"categories_segments":[],"categories_sizes":[],"default_left":[0,0,0,0,0,0,0,0,0,0,0,0,0,0,0],"id":16,"left_children":[1,3,5,7,9,11,13,-1,-1,-1,-1,-1,-1,-1,-1],"loss_changes":[2.1395718E2,8.535702E1,6.3992805E1,1.2898254E1,5.740638E1,4.8264923E1,2.694266E1,0E0,0E0,0E0,0E0,0E0,0E0,0E0,0E0],"parents":[2147483647,0,0,1,1,2,2,3,3,4,4,5,5,6,6],"right_children":[2,4,6,8,10,12,14,-1,-1,-1,-1,-1,-1,-1,-1],"split_conditions":[1.41E1,1.92E0,1E0,6E-1,1E0,1E0,2.294E1,5.1778264E-2,2.9440826E-2,1.5097976E-3,2.3610068E-2,-2.0118278E-2,2.6627077E-2,4.0764366E-3,-1.4309804E-2],"split_indices":[2,2,6,2,1,5,8,0,0,0,0,0,0,0,0],"split_type":[0,0,0,0,0,0,0,0,0,0,0,0,0,0,0],"sum_hessian":[3.988E3,1.749E3,2.239E3,3.11E2,1.438E3,1.237E3,1.002E3,9.9E1,2.12E2,1.027E3,4.11E2,1.18E3,5.7E1,7.29E2,2.73E2],"tree_param":{"num_deleted":"0","num_feature":"28","num_nodes":"15","size_leaf_vector":"1"}},{"base_weights":[1.6722204E-3,-5.49856E-2,6.6912967E-1,-9.747784E-2,6.5423256E-1,1.0841856E-1,7.349392E-1,-1.0628416E-2,7.085979E-3,3.4886576E-2,-5.121787E-3,-1.0517807E-2,1.3718489E-2,4.3901887E-2,2.467574E-2],"categories":[],"categories_nodes":[],"categories_segments":[],"categories_sizes":[],"default_left":[0,0,0,0,0,0,0,0,0,0,0,0,0,0,0],"id":17,"left_children":[1,3,5,7,9,11,13,-1,-1,-1,-1,-1,-1,-1,-1],"loss_changes":[1.5030606E2,1.1036711E2,1.1311935E1,9.5178635E1,6.9442444E0,1.8627522E0,9.033722E0,0E0,0E0,0E0,0E0,0E0,0E0,0E0,0E0],"parents":[2147483647,0,0,1,1,2,2,3,3,4,4,5,5,6,6],"right_children":[2,4,6,8,10,12,14,-1,-1,-1,-1,-1,-1,-1,-1],"split_conditions":[2E0,1E0,-8.593503E1,5.97E-1,2.6477E3,-9.093255E1,-8.2265915E1,-1.0628416E-2,7.085979E-3,3.4886576E-2,-5.121787E-3,-1.0517807E-2,1.3718489E-2,4.3901887E-2,2.467574E-2],"split_indices":[1,5,27,4,11,27,27,0,0,0,0,0,0,0,0],"split_type":[0,0,0,0,0,0,0,0,0,0,0,0,0,0,0],"sum_hessian":[3.971E3,3.661E3,3.1E2,3.455E3,2.06E2,3.3E1,2.77E2,2.333E3,1.122E3,1.95E2,1.1E1,1.1E1,2.2E1,1.72E2,1.05E2],"tree_param":{"num_deleted":"0","num_feature":"28","num_nodes":"15","size_leaf_vector":"1"}},{"base_weights":[4.248861E-3,3.147679E-1,-1.3894647E-1,7.2792083E-1,1.964846E-1,-3.0135575E-1,4.3856382E-2,5.06212E-2,3.0614628E-2,6.18243E-3,3.522665E-2,-2.3332594E-2,-4.064321E-3,-1.829852E-3,1.8156035E-2],"categories":[],"categories_nodes":[],"categories_segments":[],"categories_sizes":[],"default_left":[0,0,0,0,0,0,0,0,0,0,0,0,0,0,0],"id":18,"left_children":[1,3,5,7,9,11,13,-1,-1,-1,-1,-1,-1,-1,-1],"loss_changes":[1.7947711E2,6.2023758E1,8.203965E1,8.527374E0,3.653825E1,5.312625E1,3.3437622E1,0E0,0E0,0E0,0E0,0E0,0E0,0E0,0E0],"parents":[2147483647,0,0,1,1,2,2,3,3,4,4,5,5,6,6],"right_children":[2,4,6,8,10,12,14,-1,-1,-1,-1,-1,-1,-1,-1],"split_conditions":[8.89E0,1.71E0,4.12E-1,4.7E-1,1.241E0,1E0,1.262E0,5.06212E-2,3.0614628E-2,6.18243E-3,3.522665E-2,-2.3332594E-2,-4.064321E-3,-1.829852E-3,1.8156035E-2],"split_indices":[2,2,4,2,4,6,4,0,0,0,0,0,0,0,0],"split_type":[0,0,0,0,0,0,0,0,0,0,0,0,0,0,0],"sum_hessian":[4.034E3,1.273E3,2.761E3,2.82E2,9.91E2,1.462E3,1.299E3,7.9E1,2.03E2,8.68E2,1.23E2,8.34E2,6.28E2,1.038E3,2.61E2],"tree_param":{"num_deleted":"0","num_feature":"28","num_nodes":"15","size_leaf_vector":"1"}},{"base_weights":[7.6681827E-3,2.6179788E-1,-1.6907835E-1,5.7860786E-1,1.3574004E-1,-3.0789137E-1,4.2381715E-3,4.758961E-2,2.4047809E-2,-3.8021468E-3,1.409889E-2,-2.66781E-2,-9.703307E-3,4.935683E-3,-9.484073E-3],"categories":[],"categories_nodes":[],"categories_segments":[],"categories_sizes":[],"default_left":[0,0,0,0,0,0,0,0,0,0,0,0,0,0,0],"id":19,"left_children":[1,3,5,7,9,11,13,-1,-1,-1,-1,-1,-1,-1,-1],"loss_changes":[1.7868661E2,6.50262E1,5.647312E1,1.630809E1,3.624675E1,3.329387E1,1.913639E1,0E0,0E0,0E0,0E0,0E0,0E0,0E0,0E0],"parents":[2147483647,0,0,1,1,2,2,3,3,4,4,5,5,6,6],"right_children":[2,4,6,8,10,12,14,-1,-1,-1,-1,-1,-1,-1,-1],"split_conditions":[1.285E1,2.89E0,1E0,6E-1,3.8651657E1,1E1,3.151E0,4.758961E-2,2.4047809E-2,-3.8021468E-3,1.409889E-2,-2.66781E-2,-9.703307E-3,4.935683E-3,-9.484073E-3],"split_indices":[2,2,6,2,26,17,9,0,0,0,0,0,0,0,0],"split_type":[0,0,0,0,0,0,0,0,0,0,0,0,0,0,0],"sum_hessian":[3.976E3,1.631E3,2.345E3,4.63E2,1.168E3,1.302E3,1.043E3,9.4E1,3.69E2,4.77E2,6.91E2,4.35E2,8.67E2,7.02E2,3.41E2],"tree_param":{"num_deleted":"0","num_feature":"28","num_nodes":"15","size_leaf_vector":"1"}},{"base_weights":[-7.0330215E-4,4.9794793E-1,-7.599451E-2,7.900649E-1,3.64325E-1,-1.1971282E-1,6.346339E-1,5.283771E-2,3.2795835E-2,2.2741947E-2,2.1176266E-3,-8.80064E-3,1.7698655E-2,3.670963E-2,2.0086577E-2],"categories":[],"categories_nodes":[],"categories_segments":[],"categories_sizes":[],"default_left":[0,0,0,0,0,0,0,0,0,0,0,0,0,0,0],"id":20,"left_children":[1,3,5,7,9,11,13,-1,-1,-1,-1,-1,-1,-1,-1],"loss_changes":[1.5054729E2,2.0128357E1,1.0829463E2,5.002846E0,1.0509926E1,8.7623856E1,4.275322E0,0E0,0E0,0E0,0E0,0E0,0E0,0E0,0E0],"parents":[2147483647,0,0,1,1,2,2,3,3,4,4,5,5,6,6],"right_children":[2,4,6,8,10,12,14,-1,-1,-1,-1,-1,-1,-1,-1],"split_conditions":[3.2E0,9.9E-1,1E0,3.1E-1,4.894E0,1.218E0,2.899E0,5.283771E-2,3.2795835E-2,2.2741947E-2,2.1176266E-3,-8.80064E-3,1.7698655E-2,3.670963E-2,2.0086577E-2],"split_indices":[2,2,5,2,9,4,9,0,0,0,0,0,0,0,0],"split_type":[0,0,0,0,0,0,0,0,0,0,0,0,0,0,0],"sum_hessian":[4.009E3,5.25E2,3.484E3,1.63E2,3.62E2,3.283E3,2.01E2,5.2E1,1.11E2,2.82E2,8E1,2.935E3,3.48E2,1.39E2,6.2E1],"tree_param":{"num_deleted":"0","num_feature":"28","num_nodes":"15","size_leaf_vector":"1"}},{"base_weights":[-2.8523712E-3,3.4245273E-1,-1.0671413E-1,6.8592894E-1,2.3711604E-1,-1.439758E-1,5.2721494E-1,4.09155E-2,2.0604493E-2,8.974195E-3,3.2608476E-2,-1.1059037E-2,7.1745785E-3,2.9135793E-2,-3.7387765E-3],"categories":[],"categories_nodes":[],"categories_segments":[],"categories_sizes":[],"default_left":[0,0,0,0,0,0,0,0,0,0,0,0,0,0,0],"id":21,"left_children":[1,3,5,7,9,11,13,-1,-1,-1,-1,-1,-1,-1,-1],"loss_changes":[1.419268E2,3.285034E1,7.191706E1,7.29747E0,1.6591915E1,6.3846985E1,5.7408257E0,0E0,0E0,0E0,0E0,0E0,0E0,0E0,0E0],"parents":[2147483647,0,0,1,1,2,2,3,3,4,4,5,5,6,6],"right_children":[2,4,6,8,10,12,14,-1,-1,-1,-1,-1,-1,-1,-1],"split_conditions":[6.13E0,1.35E0,1E0,1.942E1,2E0,1E0,-7.256141E1,4.09155E-2,2.0604493E-2,8.974195E-3,3.2608476E-2,-1.1059037E-2,7.1745785E-3,2.9135793E-2,-3.7387765E-3],"split_indices":[2,2,5,8,1,1,27,0,0,0,0,0,0,0,0],"split_type":[0,0,0,0,0,0,0,0,0,0,0,0,0,0,0],"sum_hessian":[3.956E3,9.14E2,3.042E3,2.13E2,7.01E2,2.874E3,1.68E2,1.42E2,7.1E1,6.17E2,8.4E1,2.266E3,6.08E2,1.54E2,1.4E1],"tree_param":{"num_deleted":"0","num_feature":"28","num_nodes":"15","size_leaf_vector":"1"}},{"base_weights":[9.981477E-3,2.2687441E-1,-1.5646261E-1,6.518356E-1,1.6453664E-1,-2.9721317E-1,1.0494005E-2,3.9095245E-2,1.8891726E-2,5.105149E-3,2.914632E-2,-2.6618043E-2,-8.179187E-3,-1.8949689E-3,2.3557223E-2],"categories":[],"categories_nodes":[],"categories_segments":[],"categories_sizes":[],"default_left":[0,0,0,0,0,0,0,0,0,0,0,0,0,0,0],"id":22,"left_children":[1,3,5,7,9,11,13,-1,-1,-1,-1,-1,-1,-1,-1],"loss_changes":[1.433256E2,4.5481827E1,5.2811066E1,7.429199E0,3.9184994E1,3.8147537E1,2.2977804E1,0E0,0E0,0E0,0E0,0E0,0E0,0E0,0E0],"parents":[2147483647,0,0,1,1,2,2,3,3,4,4,5,5,6,6],"right_children":[2,4,6,8,10,12,14,-1,-1,-1,-1,-1,-1,-1,-1],"split_conditions":[1.41E1,1.35E0,4.43E-1,1.686E1,1.218E0,2.17E1,1.686E0,3.9095245E-2,1.8891726E-2,5.105149E-3,2.914632E-2,-2.6618043E-2,-8.179187E-3,-1.8949689E-3,2.3557223E-2],"split_indices":[2,2,4,8,4,14,4,0,0,0,0,0,0,0,0],"split_type":[0,0,0,0,0,0,0,0,0,0,0,0,0,0,0],"sum_hessian":[3.968E3,1.723E3,2.245E3,2.19E2,1.504E3,1.218E3,1.027E3,1.47E2,7.2E1,1.31E3,1.94E2,4.4E2,7.78E2,9.3E2,9.7E1],"tree_param":{"num_deleted":"0","num_feature":"28","num_nodes":"15","size_leaf_vector":"1"}},{"base_weights":[-2.91995E-3,2.4637412E-1,-1.2699921E-1,6.994812E-1,1.8355493E-1,-2.542724E-1,3.6475025E-2,5.114609E-2,2.973797E-2,6.194146E-3,3.078255E-2,-1.6917558E-2,4.338835E-3,6.9987997E-3,-1.1433567E-2],"categories":[],"categories_nodes":[],"categories_segments":[],"categories_sizes":[],"default_left":[0,0,0,0,0,0,0,0,0,0,0,0,0,0,0],"id":23,"left_children":[1,3,5,7,9,11,13,-1,-1,-1,-1,-1,-1,-1,-1],"loss_changes":[1.2427409E2,3.7782494E1,5.5853256E1,4.71698E0,3.0120247E1,4.3325073E1,3.226856E1,0E0,0E0,0E0,0E0,0E0,0E0,0E0,0E0],"parents":[2147483647,0,0,1,1,2,2,3,3,4,4,5,5,6,6],"right_children":[2,4,6,8,10,12,14,-1,-1,-1,-1,-1,-1,-1,-1],"split_conditions":[9.81E0,9.9E-1,1E0,2.3E-1,2E0,1E0,2.205E1,5.114609E-2,2.973797E-2,6.194146E-3,3.078255E-2,-1.6917558E-2,4.338835E-3,6.9987997E-3,-1.1433567E-2],"split_indices":[2,2,6,2,1,1,8,0,0,0,0,0,0,0,0],"split_type":[0,0,0,0,0,0,0,0,0,0,0,0,0,0,0],"sum_hessian":[4.016E3,1.334E3,2.682E3,1.61E2,1.173E3,1.508E3,1.174E3,3.7E1,1.24E2,1.032E3,1.41E2,1.21E3,2.98E2,8.45E2,3.29E2],"tree_param":{"num_deleted":"0","num_feature":"28","num_nodes":"15","size_leaf_vector":"1"}},{"base_weights":[-1.9881318E-3,4.1297752E-1,-6.902449E-2,6.831783E-1,3.04423E-1,-1.0818215E-1,6.0395044E-1,5.0309908E-2,2.8583517E-2,1.9527394E-2,6.3161156E-4,-8.031349E-3,1.667211E-2,3.505915E-2,1.3750113E-2],"categories":[],"categories_nodes":[],"categories_segments":[],"categories_sizes":[],"default_left":[0,0,0,0,0,0,0,0,0,0,0,0,0,0,0],"id":24,"left_children":[1,3,5,7,9,11,13,-1,-1,-1,-1,-1,-1,-1,-1],"loss_changes":[1.11014885E2,1.59722595E1,9.0588005E1,4.9580536E0,9.956661E0,7.528607E1,5.7546234E0,0E0,0E0,0E0,0E0,0E0,0E0,0E0,0E0],"parents":[2147483647,0,0,1,1,2,2,3,3,4,4,5,5,6,6],"right_children":[2,4,6,8,10,12,14,-1,-1,-1,-1,-1,-1,-1,-1],"split_conditions":[3.43E0,9.9E-1,1E0,2.3E-1,4.795E0,1.218E0,5.174E0,5.0309908E-2,2.8583517E-2,1.9527394E-2,6.3161156E-4,-8.031349E-3,1.667211E-2,3.505915E-2,1.3750113E-2],"split_indices":[2,2,5,2,9,4,9,0,0,0,0,0,0,0,0],"split_type":[0,0,0,0,0,0,0,0,0,0,0,0,0,0,0],"sum_hessian":[3.99E3,5.54E2,3.436E3,1.57E2,3.97E2,3.248E3,1.88E2,3.8E1,1.19E2,3.06E2,9.1E1,2.904E3,3.44E2,1.44E2,4.4E1],"tree_param":{"num_deleted":"0","num_feature":"28","num_nodes":"15","size_leaf_vector":"1"}},{"base_weights":[-2.4385846E-3,1.2354694E-1,-2.0530173E-1,7.090023E-2,5.960467E-1,-3.6081412E-1,-6.2817945E-3,6.6106813E-3,-1.2147909E-2,-1.2428983E-2,3.0916808E-2,-2.3952862E-2,-6.177719E-3,5.0370526E-3,-1.0207562E-2],"categories":[],"categories_nodes":[],"categories_segments":[],"categories_sizes":[],"default_left":[0,0,0,0,0,0,0,0,0,0,0,0,0,0,0],"id":25,"left_children":[1,3,5,7,9,11,13,-1,-1,-1,-1,-1,-1,-1,-1],"loss_changes":[1.0305711E2,6.1756554E1,4.7778877E1,4.3107735E1,4.878418E0,2.420366E1,1.4409785E1,0E0,0E0,0E0,0E0,0E0,0E0,0E0,0E0],"parents":[2147483647,0,0,1,1,2,2,3,3,4,4,5,5,6,6],"right_children":[2,4,6,8,10,12,14,-1,-1,-1,-1,-1,-1,-1,-1],"split_conditions":[2.405E1,2E0,1E0,3.484E1,3.3928505E1,3.42E1,1.57E1,6.6106813E-3,-1.2147909E-2,-1.2428983E-2,3.0916808E-2,-2.3952862E-2,-6.177719E-3,5.0370526E-3,-1.0207562E-2],"split_indices":[2,1,6,8,26,14,8,0,0,0,0,0,0,0,0],"split_type":[0,0,0,0,0,0,0,0,0,0,0,0,0,0,0],"sum_hessian":[4.03E3,2.486E3,1.544E3,2.238E3,2.48E2,8.66E2,6.78E2,1.873E3,3.65E2,6E0,2.42E2,5.77E2,2.89E2,4.4E2,2.38E2],"tree_param":{"num_deleted":"0","num_feature":"28","num_nodes":"15","size_leaf_vector":"1"}},{"base_weights":[5.924419E-3,1.7803104E-1,-1.358463E-1,-4.083337E-3,3.1740797E-1,-2.5965834E-1,1.768183E-2,2.146333E-2,-4.0023956E-3,2.1577826E-2,4.886353E-3,-2.0322165E-2,-3.619498E-3,4.976691E-3,-1.31050525E-2],"categories":[],"categories_nodes":[],"categories_segments":[],"categories_sizes":[],"default_left":[0,0,0,0,0,0,0,0,0,0,0,0,0,0,0],"id":26,"left_children":[1,3,5,7,9,11,13,-1,-1,-1,-1,-1,-1,-1,-1],"loss_changes":[9.684634E1,4.554352E1,4.139157E1,2.5610611E1,2.538237E1,3.304595E1,2.2269396E1,0E0,0E0,0E0,0E0,0E0,0E0,0E0,0E0],"parents":[2147483647,0,0,1,1,2,2,3,3,4,4,5,5,6,6],"right_children":[2,4,6,8,10,12,14,-1,-1,-1,-1,-1,-1,-1,-1],"split_conditions":[1.488E1,3.9185307E1,4.43E-1,1.92E0,-8.0806465E1,1E0,2.391E1,2.146333E-2,-4.0023956E-3,2.1577826E-2,4.886353E-3,-2.0322165E-2,-3.619498E-3,4.976691E-3,-1.31050525E-2],"split_indices":[2,26,4,2,27,6,8,0,0,0,0,0,0,0,0],"split_type":[0,0,0,0,0,0,0,0,0,0,0,0,0,0,0],"sum_hessian":[3.967E3,1.792E3,2.175E3,7.77E2,1.015E3,1.204E3,9.71E2,1.15E2,6.62E2,6.67E2,3.48E2,6.74E2,5.3E2,7.52E2,2.19E2],"tree_param":{"num_deleted":"0","num_feature":"28","num_nodes":"15","size_leaf_vector":"1"}},{"base_weights":[-6.4455057E-3,-1.5751836E-1,1.362459E-1,-7.077441E-2,-4.0599653E-1,-2.0258087E-1,2.3133656E-1,-9.925169E-3,3.6242155E-3,-1.82218E-2,-4.285262E-2,-5.4339985E-3,-2.2246612E-2,2.6516354E-2,-2.5174299E-3],"categories":[],"categories_nodes":[],"categories_segments":[],"categories_sizes":[],"default_left":[0,0,0,0,0,0,0,0,0,0,0,0,0,0,0],"id":27,"left_children":[1,3,5,7,9,11,13,-1,-1,-1,-1,-1,-1,-1,-1],"loss_changes":[8.737174E1,4.2363365E1,6.719469E1,2.6760788E1,9.107292E0,1.029624E1,1.371868E2,0E0,0E0,0E0,0E0,0E0,0E0,0E0,0E0],"parents":[2147483647,0,0,1,1,2,2,3,3,4,4,5,5,6,6],"right_children":[2,4,6,8,10,12,14,-1,-1,-1,-1,-1,-1,-1,-1],"split_conditions":[3.913193E1,2.331E1,-8.817351E1,2.85E1,1.231E2,5.684E2,-8.113402E1,-9.925169E-3,3.6242155E-3,-1.82218E-2,-4.285262E-2,-5.4339985E-3,-2.2246612E-2,2.6516354E-2,-2.5174299E-3],"split_indices":[26,8,27,14,8,11,27,0,0,0,0,0,0,0,0],"split_type":[0,0,0,0,0,0,0,0,0,0,0,0,0,0,0],"sum_hessian":[4.051E3,1.968E3,2.083E3,1.46E3,5.08E2,4.56E2,1.627E3,7.72E2,6.88E2,4.67E2,4.1E1,3.3E2,1.26E2,7.89E2,8.38E2],"tree_param":{"num_deleted":"0","num_feature":"28","num_nodes":"15","size_leaf_vector":"1"}},{"base_weights":[-1.1893589E-3,1.5345608E-1,-1.6393721E-1,5.6180164E-2,3.8512838E-1,-1.9700542E-1,4.7183597E-1,6.860106E-3,-9.915123E-3,7.018862E-3,2.3590473E-2,-1.850528E-2,-4.5967638E-3,-1.0566791E-2,2.5617449E-2],"categories":[],"categories_nodes":[],"categories_segments":[],"categories_sizes":[],"default_left":[0,0,0,0,0,0,0,0,0,0,0,0,0,0,0],"id":28,"left_children":[1,3,5,7,9,11,13,-1,-1,-1,-1,-1,-1,-1,-1],"loss_changes":[1.0117725E2,4.638121E1,4.1251247E1,2.9980036E1,1.2792664E1,3.3803375E1,2.82308E0,0E0,0E0,0E0,0E0,0E0,0E0,0E0,0E0],"parents":[2147483647,0,0,1,1,2,2,3,3,4,4,5,5,6,6],"right_children":[2,4,6,8,10,12,14,-1,-1,-1,-1,-1,-1,-1,-1],"split_conditions":[1.764E1,1E0,1E0,4.563E0,3.9185307E1,2.17E1,8.1E0,6.860106E-3,-9.915123E-3,7.018862E-3,2.3590473E-2,-1.850528E-2,-4.5967638E-3,-1.0566791E-2,2.5617449E-2],"split_indices":[2,1,5,9,26,14,14,0,0,0,0,0,0,0,0],"split_type":[0,0,0,0,0,0,0,0,0,0,0,0,0,0,0],"sum_hessian":[4.018E3,2.06E3,1.958E3,1.452E3,6.08E2,1.862E3,9.6E1,1.102E3,3.5E2,1.6E2,4.48E2,7.02E2,1.16E3,5E0,9.1E1],"tree_param":{"num_deleted":"0","num_feature":"28","num_nodes":"15","size_leaf_vector":"1"}},{"base_weights":[3.772895E-3,3.1038612E-1,-6.6053934E-2,6.068686E-1,2.3317774E-1,-1.182404E-1,3.3623648E-1,3.7299607E-2,2.1811748E-2,9.743911E-3,3.982977E-2,-7.546102E-3,2.2790454E-2,2.2146212E-2,5.0540688E-3],"categories":[],"categories_nodes":[],"categories_segments":[],"categories_sizes":[],"default_left":[0,0,0,0,0,0,0,0,0,0,0,0,0,0,0],"id":29,"left_children":[1,3,5,7,9,11,13,-1,-1,-1,-1,-1,-1,-1,-1],"loss_changes":[8.540593E1,1.6713776E1,6.820684E1,3.1647034E0,1.2455421E1,5.3994595E1,9.258713E0,0E0,0E0,0E0,0E0,0E0,0E0,0E0,0E0],"parents":[2147483647,0,0,1,1,2,2,3,3,4,4,5,5,6,6],"right_children":[2,4,6,8,10,12,14,-1,-1,-1,-1,-1,-1,-1,-1],"split_conditions":[4.84E0,9.9E-1,1.167E0,1.116E1,1E0,1E0,1.616E1,3.7299607E-2,2.1811748E-2,9.743911E-3,3.982977E-2,-7.546102E-3,2.2790454E-2,2.2146212E-2,5.0540688E-3],"split_indices":[2,2,4,8,5,5,8,0,0,0,0,0,0,0,0],"split_type":[0,0,0,0,0,0,0,0,0,0,0,0,0,0,0],"sum_hessian":[3.986E3,7.39E2,3.247E3,1.51E2,5.88E2,2.875E3,3.72E2,8.1E1,7E1,5.52E2,3.6E1,2.721E3,1.54E2,2.55E2,1.17E2],"tree_param":{"num_deleted":"0","num_feature":"28","num_nodes":"15","size_leaf_vector":"1"}},{"base_weights":[1.2031233E-2,-2.2936806E-2,5.663498E-1,-1.5634115E-1,1.0299406E-1,2.4134211E-1,6.1833483E-1,-1.3413916E-2,-3.0529458E-4,-1.1331624E-2,9.558148E-3,3.6778457E-3,2.403115E-2,3.218552E-2,7.306006E-3],"categories":[],"categories_nodes":[],"categories_segments":[],"categories_sizes":[],"default_left":[0,0,0,0,0,0,0,0,0,0,0,0,0,0,0],"id":30,"left_children":[1,3,5,7,9,11,13,-1,-1,-1,-1,-1,-1,-1,-1],"loss_changes":[7.839578E1,6.389399E1,3.8197327E0,3.103175E1,5.6886627E1,1.3144011E0,2.295395E0,0E0,0E0,0E0,0E0,0E0,0E0,0E0,0E0],"parents":[2147483647,0,0,1,1,2,2,3,3,4,4,5,5,6,6],"right_children":[2,4,6,8,10,12,14,-1,-1,-1,-1,-1,-1,-1,-1],"split_conditions":[1E0,3.913193E1,3.3244713E1,1E0,-8.817351E1,1.06E0,1.5273E1,-1.3413916E-2,-3.0529458E-4,-1.1331624E-2,9.558148E-3,3.6778457E-3,2.403115E-2,3.218552E-2,7.306006E-3],"split_indices":[5,26,26,6,27,13,9,0,0,0,0,0,0,0,0],"split_type":[0,0,0,0,0,0,0,0,0,0,0,0,0,0,0],"sum_hessian":[4.04E3,3.801E3,2.39E2,1.846E3,1.955E3,3.4E1,2.05E2,1.057E3,7.89E2,4.12E2,1.543E3,2.1E1,1.3E1,1.94E2,1.1E1],"tree_param":{"num_deleted":"0","num_feature":"28","num_nodes":"15","size_leaf_vector":"1"}},{"base_weights":[-1.9228124E-3,-8.282831E-2,2.4799706E-1,7.116022E-2,-1.8873692E-1,1.4584412E-1,4.6892112E-1,1.886591E-2,5.969309E-4,-1.5619258E-2,-1.2227906E-3,1.2356423E-2,-1.646708E-3,2.0258082E-2,4.172925E-2],"categories":[],"categories_nodes":[],"categories_segments":[],"categories_sizes":[],"default_left":[0,0,0,0,0,0,0,0,0,0,0,0,0,0,0],"id":31,"left_children":[1,3,5,7,9,11,13,-1,-1,-1,-1,-1,-1,-1,-1],"loss_changes":[8.153063E1,4.9717834E1,2.212222E1,2.247548E1,3.664408E1,1.2270188E1,6.7887115E0,0E0,0E0,0E0,0E0,0E0,0E0,0E0,0E0],"parents":[2147483647,0,0,1,1,2,2,3,3,4,4,5,5,6,6],"right_children":[2,4,6,8,10,12,14,-1,-1,-1,-1,-1,-1,-1,-1],"split_conditions":[1E0,1.397E1,2E0,1.99E0,1E0,2.178E1,4E0,1.886591E-2,5.969309E-4,-1.5619258E-2,-1.2227906E-3,1.2356423E-2,-1.646708E-3,2.0258082E-2,4.172925E-2],"split_indices":[1,2,1,2,6,2,1,0,0,0,0,0,0,0,0],"split_type":[0,0,0,0,0,0,0,0,0,0,0,0,0,0,0],"sum_hessian":[4.031E3,3.046E3,9.85E2,1.241E3,1.805E3,6.75E2,3.1E2,2E2,1.041E3,1.029E3,7.76E2,4.31E2,2.44E2,2.66E2,4.4E1],"tree_param":{"num_deleted":"0","num_feature":"28","num_nodes":"15","size_leaf_vector":"1"}},{"base_weights":[9.665665E-4,-9.090294E-2,1.8252355E-1,-2.3003477E-1,1.8135162E-2,2.6106793E-1,-6.1263543E-2,-1.9744197E-2,-5.868379E-3,7.098852E-3,-8.144333E-3,8.914358E-3,2.2806702E-2,-1.0752015E-2,6.560935E-3],"categories":[],"categories_nodes":[],"categories_segments":[],"categories_sizes":[],"default_left":[0,0,0,0,0,0,0,0,0,0,0,0,0,0,0],"id":32,"left_children":[1,3,5,7,9,11,13,-1,-1,-1,-1,-1,-1,-1,-1],"loss_changes":[6.6710594E1,4.030349E1,2.577103E1,2.157722E1,3.340156E1,1.6277466E1,9.745169E0,0E0,0E0,0E0,0E0,0E0,0E0,0E0,0E0],"parents":[2147483647,0,0,1,1,2,2,3,3,4,4,5,5,6,6],"right_children":[2,4,6,8,10,12,14,-1,-1,-1,-1,-1,-1,-1,-1],"split_conditions":[5.97E-1,3.8222954E1,2.294E1,2.29E1,-8.0355965E1,1.262E0,4.0534164E1,-1.9744197E-2,-5.868379E-3,7.098852E-3,-8.144333E-3,8.914358E-3,2.2806702E-2,-1.0752015E-2,6.560935E-3],"split_indices":[4,26,8,14,27,4,26,0,0,0,0,0,0,0,0],"split_type":[0,0,0,0,0,0,0,0,0,0,0,0,0,0,0],"sum_hessian":[3.997E3,2.654E3,1.343E3,1.166E3,1.488E3,1.016E3,3.27E2,4.72E2,6.94E2,8.84E2,6.04E2,7.15E2,3.01E2,1.82E2,1.45E2],"tree_param":{"num_deleted":"0","num_feature":"28","num_nodes":"15","size_leaf_vector":"1"}},{"base_weights":[-4.208853E-3,-1.3321598E-1,1.158744E-1,2.924949E-1,-1.7364936E-1,-1.8249224E-1,1.9642551E-1,1.8005883E-2,-1.5152678E-4,-3.7814386E-3,-1.6896952E-2,8.59647E-3,-1.1678245E-2,2.256866E-2,-2.7158868E-3],"categories":[],"categories_nodes":[],"categories_segments":[],"categories_sizes":[],"default_left":[0,0,0,0,0,0,0,0,0,0,0,0,0,0,0],"id":33,"left_children":[1,3,5,7,9,11,13,-1,-1,-1,-1,-1,-1,-1,-1],"loss_changes":[6.2169445E1,3.3345924E1,4.997941E1,3.3941536E0,2.8404549E1,8.047075E0,1.0471176E2,0E0,0E0,0E0,0E0,0E0,0E0,0E0,0E0],"parents":[2147483647,0,0,1,1,2,2,3,3,4,4,5,5,6,6],"right_children":[2,4,6,8,10,12,14,-1,-1,-1,-1,-1,-1,-1,-1],"split_conditions":[3.913193E1,2.68E0,-8.817351E1,2.491E1,1.585E1,4.11E0,-8.0806465E1,1.8005883E-2,-1.5152678E-4,-3.7814386E-3,-1.6896952E-2,8.59647E-3,-1.1678245E-2,2.256866E-2,-2.7158868E-3],"split_indices":[26,2,27,8,8,2,27,0,0,0,0,0,0,0,0],"split_type":[0,0,0,0,0,0,0,0,0,0,0,0,0,0,0],"sum_hessian":[4.011E3,1.934E3,2.077E3,1.67E2,1.767E3,4.41E2,1.636E3,1.36E2,3.1E1,1.108E3,6.59E2,5.5E1,3.86E2,8.11E2,8.25E2],"tree_param":{"num_deleted":"0","num_feature":"28","num_nodes":"15","size_leaf_vector":"1"}},{"base_weights":[-5.315285E-3,-3.659326E-2,4.900924E-1,-1.2141703E-1,1.308462E-1,5.3906E-1,1.0350949E-1,-1.15715405E-2,1.1924959E-3,1.04759475E-2,-5.713565E-3,2.2483608E-2,3.562302E-2,-1.1238309E-3,1.7126609E-2],"categories":[],"categories_nodes":[],"categories_segments":[],"categories_sizes":[],"default_left":[0,0,0,0,0,0,0,0,0,0,0,0,0,0,0],"id":34,"left_children":[1,3,5,7,9,11,13,-1,-1,-1,-1,-1,-1,-1,-1],"loss_changes":[6.1582085E1,5.3147797E1,4.347435E0,3.9723995E1,2.4292816E1,2.8028946E0,8.828834E-1,0E0,0E0,0E0,0E0,0E0,0E0,0E0,0E0],"parents":[2147483647,0,0,1,1,2,2,3,3,4,4,5,5,6,6],"right_children":[2,4,6,8,10,12,14,-1,-1,-1,-1,-1,-1,-1,-1],"split_conditions":[1E0,5.97E-1,5.358E1,1E0,2.331E1,1E0,4.89E1,-1.15715405E-2,1.1924959E-3,1.04759475E-2,-5.713565E-3,2.2483608E-2,3.562302E-2,-1.1238309E-3,1.7126609E-2],"split_indices":[5,4,8,6,8,1,15,0,0,0,0,0,0,0,0],"split_type":[0,0,0,0,0,0,0,0,0,0,0,0,0,0,0],"sum_hessian":[3.975E3,3.74E3,2.35E2,2.483E3,1.257E3,2.08E2,2.7E1,1.413E3,1.07E3,9.52E2,3.05E2,1.4E2,6.8E1,1.8E1,9E0],"tree_param":{"num_deleted":"0","num_feature":"28","num_nodes":"15","size_leaf_vector":"1"}},{"base_weights":[-2.2704566E-3,1.3995267E-1,-1.1053818E-1,3.997558E-1,8.2733944E-2,-2.3286697E-1,2.594105E-2,4.186997E-2,1.727054E-2,-1.3748201E-3,1.1105445E-2,-2.4243943E-2,-6.097883E-3,3.0982743E-3,-1.8455904E-2],"categories":[],"categories_nodes":[],"categories_segments":[],"categories_sizes":[],"default_left":[0,0,0,0,0,0,0,0,0,0,0,0,0,0,0],"id":35,"left_children":[1,3,5,7,9,11,13,-1,-1,-1,-1,-1,-1,-1,-1],"loss_changes":[6.2498318E1,2.5992947E1,3.850949E1,7.108135E0,2.2133429E1,3.386795E1,1.5504802E1,0E0,0E0,0E0,0E0,0E0,0E0,0E0,0E0],"parents":[2147483647,0,0,1,1,2,2,3,3,4,4,5,5,6,6],"right_children":[2,4,6,8,10,12,14,-1,-1,-1,-1,-1,-1,-1,-1],"split_conditions":[1.41E1,1.92E0,4.12E-1,2.3E-1,4.1041843E1,1.91E1,4.934E1,4.186997E-2,1.727054E-2,-1.3748201E-3,1.1105445E-2,-2.4243943E-2,-6.097883E-3,3.0982743E-3,-1.8455904E-2],"split_indices":[2,2,4,2,26,14,8,0,0,0,0,0,0,0,0],"split_type":[0,0,0,0,0,0,0,0,0,0,0,0,0,0,0],"sum_hessian":[4.057E3,1.753E3,2.304E3,3.15E2,1.438E3,1.215E3,1.089E3,3.3E1,2.82E2,8.03E2,6.35E2,3.7E2,8.45E2,9.99E2,9E1],"tree_param":{"num_deleted":"0","num_feature":"28","num_nodes":"15","size_leaf_vector":"1"}},{"base_weights":[-2.5595117E-3,8.233877E-2,-1.7975673E-1,4.4066105E-2,4.4994187E-1,-3.6257848E-1,-7.119956E-2,4.4975425E-3,-1.2357415E-2,5.486539E-3,2.471856E-2,-2.6118174E-2,-7.0499084E-3,-9.86766E-3,2.9481018E-3],"categories":[],"categories_nodes":[],"categories_segments":[],"categories_sizes":[],"default_left":[0,0,0,0,0,0,0,0,0,0,0,0,0,0,0],"id":36,"left_children":[1,3,5,7,9,11,13,-1,-1,-1,-1,-1,-1,-1,-1],"loss_changes":[6.0274723E1,3.8030033E1,2.5691711E1,3.2797592E1,3.7397537E0,1.6960728E1,1.342449E1,0E0,0E0,0E0,0E0,0E0,0E0,0E0,0E0],"parents":[2147483647,0,0,1,1,2,2,3,3,4,4,5,5,6,6],"right_children":[2,4,6,8,10,12,14,-1,-1,-1,-1,-1,-1,-1,-1],"split_conditions":[2.797E1,2E0,2.5E-1,3.933E1,-8.593503E1,1E0,2.71E1,4.4975425E-3,-1.2357415E-2,5.486539E-3,2.471856E-2,-2.6118174E-2,-7.0499084E-3,-9.86766E-3,2.9481018E-3],"split_indices":[2,1,4,8,27,6,14,0,0,0,0,0,0,0,0],"split_type":[0,0,0,0,0,0,0,0,0,0,0,0,0,0,0],"sum_hessian":[4.004E3,2.707E3,1.297E3,2.453E3,2.54E2,4.82E2,8.15E2,2.12E3,3.33E2,3E1,2.24E2,2.79E2,2.03E2,4.14E2,4.01E2],"tree_param":{"num_deleted":"0","num_feature":"28","num_nodes":"15","size_leaf_vector":"1"}},{"base_weights":[2.3293716E-4,1.88603E-1,-7.7857524E-2,1.5503268E-1,5.9348476E-1,-2.342564E-1,1.5367739E-2,2.5546072E-2,5.8683907E-3,1.7738853E-2,3.597588E-2,-2.4079451E-2,-6.426061E-3,-4.773594E-3,7.610239E-3],"categories":[],"categories_nodes":[],"categories_segments":[],"categories_sizes":[],"default_left":[0,0,0,0,0,0,0,0,0,0,0,0,0,0,0],"id":37,"left_children":[1,3,5,7,9,11,13,-1,-1,-1,-1,-1,-1,-1,-1],"loss_changes":[5.8718277E1,1.573579E1,4.1156593E1,1.4380877E1,2.314867E0,2.744104E1,2.6835398E1,0E0,0E0,0E0,0E0,0E0,0E0,0E0,0E0],"parents":[2147483647,0,0,1,1,2,2,3,3,4,4,5,5,6,6],"right_children":[2,4,6,8,10,12,14,-1,-1,-1,-1,-1,-1,-1,-1],"split_conditions":[8.19E0,1E0,2.5E-1,6.9E-1,3.35E-1,1.95E1,3.9844376E1,2.5546072E-2,5.8683907E-3,1.7738853E-2,3.597588E-2,-2.4079451E-2,-6.426061E-3,-4.773594E-3,7.610239E-3],"split_indices":[2,5,4,2,4,14,26,0,0,0,0,0,0,0,0],"split_type":[0,0,0,0,0,0,0,0,0,0,0,0,0,0,0],"sum_hessian":[3.989E3,1.169E3,2.82E3,1.081E3,8.8E1,1.053E3,1.767E3,1.02E2,9.79E2,3.2E1,5.6E1,3.14E2,7.39E2,9.76E2,7.91E2],"tree_param":{"num_deleted":"0","num_feature":"28","num_nodes":"15","size_leaf_vector":"1"}},{"base_weights":[6.409283E-4,-6.566015E-2,2.0792577E-1,-1.6317722E-1,6.453665E-2,-1.3478534E-1,2.6560244E-1,-1.5291688E-2,-2.7923475E-3,6.9494396E-3,-6.890591E-3,-8.559661E-3,2.835674E-2,2.0840961E-2,2.1426303E-3],"categories":[],"categories_nodes":[],"categories_segments":[],"categories_sizes":[],"default_left":[0,0,0,0,0,0,0,0,0,0,0,0,0,0,0],"id":38,"left_children":[1,3,5,7,9,11,13,-1,-1,-1,-1,-1,-1,-1,-1],"loss_changes":[5.494574E1,3.8465126E1,1.9202557E1,2.6466034E1,1.9558933E1,3.6352544E0,2.7893486E1,0E0,0E0,0E0,0E0,0E0,0E0,0E0,0E0],"parents":[2147483647,0,0,1,1,2,2,3,3,4,4,5,5,6,6],"right_children":[2,4,6,8,10,12,14,-1,-1,-1,-1,-1,-1,-1,-1],"split_conditions":[1E0,1E0,-8.771722E1,2.36E1,2.294E1,1E0,-8.101368E1,-1.5291688E-2,-2.7923475E-3,6.9494396E-3,-6.890591E-3,-8.559661E-3,2.835674E-2,2.0840961E-2,2.1426303E-3],"split_indices":[1,6,27,14,8,5,27,0,0,0,0,0,0,0,0],"split_type":[0,0,0,0,0,0,0,0,0,0,0,0,0,0,0],"sum_hessian":[3.995E3,3.027E3,9.68E2,1.731E3,1.296E3,1.39E2,8.29E2,7.42E2,9.89E2,9.48E2,3.48E2,1.33E2,6E0,4.93E2,3.36E2],"tree_param":{"num_deleted":"0","num_feature":"28","num_nodes":"15","size_leaf_vector":"1"}},{"base_weights":[1.6639298E-3,-2.6876636E-2,4.69532E-1,-1.22808166E-1,9.718592E-2,5.3170073E-1,1.4697276E-1,-1.4519808E-2,-1.9547564E-3,6.6370796E-4,1.3519903E-2,2.059667E-2,3.078386E-2,-7.5864466E-3,1.0542293E-2],"categories":[],"categories_nodes":[],"categories_segments":[],"categories_sizes":[],"default_left":[0,0,0,0,0,0,0,0,0,0,0,0,0,0,0],"id":39,"left_children":[1,3,5,7,9,11,13,-1,-1,-1,-1,-1,-1,-1,-1],"loss_changes":[5.2254623E1,4.387156E1,4.3659325E0,2.912261E1,2.3325043E1,1.5344543E0,7.629051E-1,0E0,0E0,0E0,0E0,0E0,0E0,0E0,0E0],"parents":[2147483647,0,0,1,1,2,2,3,3,4,4,5,5,6,6],"right_children":[2,4,6,8,10,12,14,-1,-1,-1,-1,-1,-1,-1,-1],"split_conditions":[1E0,4.0534164E1,5.583E0,1.99E1,1E0,3.8651657E1,4.3E0,-1.4519808E-2,-1.9547564E-3,6.6370796E-4,1.3519903E-2,2.059667E-2,3.078386E-2,-7.5864466E-3,1.0542293E-2],"split_indices":[5,26,9,14,1,26,18,0,0,0,0,0,0,0,0],"split_type":[0,0,0,0,0,0,0,0,0,0,0,0,0,0,0],"sum_hessian":[3.908E3,3.684E3,2.24E2,2.078E3,1.606E3,1.87E2,3.7E1,6.91E2,1.387E3,1.083E3,5.23E2,8E1,1.07E2,6E0,3.1E1],"tree_param":{"num_deleted":"0","num_feature":"28","num_nodes":"15","size_leaf_vector":"1"}},{"base_weights":[-1.9080889E-3,7.312403E-2,-1.7284726E-1,4.839075E-2,4.8928142E-1,-2.8875393E-1,-2.7995141E-2,1.7810376E-2,6.961164E-4,2.850594E-2,7.881083E-3,-1.6229693E-2,1.9677004E-2,1.9083044E-3,-1.1424122E-2],"categories":[],"categories_nodes":[],"categories_segments":[],"categories_sizes":[],"default_left":[0,0,0,0,0,0,0,0,0,0,0,0,0,0,0],"id":40,"left_children":[1,3,5,7,9,11,13,-1,-1,-1,-1,-1,-1,-1,-1],"loss_changes":[5.112111E1,2.8423695E1,2.037606E1,2.770307E1,3.9929886E0,1.6626873E1,7.217103E0,0E0,0E0,0E0,0E0,0E0,0E0,0E0,0E0],"parents":[2147483647,0,0,1,1,2,2,3,3,4,4,5,5,6,6],"right_children":[2,4,6,8,10,12,14,-1,-1,-1,-1,-1,-1,-1,-1],"split_conditions":[3.018E1,1E0,1E0,1.71E0,5.583E0,1E0,2.294E1,1.7810376E-2,6.961164E-4,2.850594E-2,7.881083E-3,-1.6229693E-2,1.9677004E-2,1.9083044E-3,-1.1424122E-2],"split_indices":[2,5,6,2,9,5,8,0,0,0,0,0,0,0,0],"split_type":[0,0,0,0,0,0,0,0,0,0,0,0,0,0,0],"sum_hessian":[3.983E3,2.768E3,1.215E3,2.614E3,1.54E2,6.74E2,5.41E2,2.62E2,2.352E3,1.23E2,3.1E1,6.41E2,3.3E1,4.07E2,1.34E2],"tree_param":{"num_deleted":"0","num_feature":"28","num_nodes":"15","size_leaf_vector":"1"}},{"base_weights":[1.3056109E-3,-3.1372752E-2,3.7003514E-1,2.854691E-1,-6.671439E-2,-1.9465681E-2,3.9054796E-1,3.098745E-2,1.1312753E-2,-7.0646256E-3,3.6260418E-3,-1.9304801E-3,2.0829294E-2],"categories":[],"categories_nodes":[],"categories_segments":[],"categories_sizes":[],"default_left":[0,0,0,0,0,0,0,0,0,0,0,0,0],"id":41,"left_children":[1,3,5,7,9,-1,11,-1,-1,-1,-1,-1,-1],"loss_changes":[4.854462E1,4.14063E1,5.261223E0,7.118778E0,3.4574753E1,0E0,3.6296806E0,0E0,0E0,0E0,0E0,0E0,0E0],"parents":[2147483647,0,0,1,1,2,2,3,3,4,4,6,6],"right_children":[2,4,6,8,10,-1,12,-1,-1,-1,-1,-1,-1],"split_conditions":[2E0,2.78E0,-1.11176445E2,3.9E-1,3.38E1,-1.9465681E-2,8.7E0,3.098745E-2,1.1312753E-2,-7.0646256E-3,3.6260418E-3,-1.9304801E-3,2.0829294E-2],"split_indices":[1,2,27,2,14,0,22,0,0,0,0,0,0],"split_type":[0,0,0,0,0,0,0,0,0,0,0,0,0],"sum_hessian":[4.024E3,3.697E3,3.27E2,3.7E2,3.327E3,8E0,3.19E2,5.4E1,3.16E2,2.167E3,1.16E3,1.8E1,3.01E2],"tree_param":{"num_deleted":"0","num_feature":"28","num_nodes":"13","size_leaf_vector":"1"}},{"base_weights":[1.8759718E-3,-2.428759E-2,4.2349678E-1,-7.668174E-2,1.8532778E-1,4.5346642E-1,-7.056157E-2,1.3324551E-4,-1.1268731E-2,1.2845199E-2,-3.7717936E-3,1.7591214E-2,2.7829275E-2,-1.8330097E-2,9.239697E-3],"categories":[],"categories_nodes":[],"categories_segments":[],"categories_sizes":[],"default_left":[0,0,0,0,0,0,0,0,0,0,0,0,0,0,0],"id":42,"left_children":[1,3,5,7,9,11,13,-1,-1,-1,-1,-1,-1,-1,-1],"loss_changes":[4.3987083E1,4.1199154E1,3.5202637E0,3.5441315E1,1.4035877E1,2.0192146E0,1.1442641E0,0E0,0E0,0E0,0E0,0E0,0E0,0E0,0E0],"parents":[2147483647,0,0,1,1,2,2,3,3,4,4,5,5,6,6],"right_children":[2,4,6,8,10,12,14,-1,-1,-1,-1,-1,-1,-1,-1],"split_conditions":[1E0,8.83E-1,2.6477E3,2.747E1,4.197E0,9.28E-1,1.5E1,1.3324551E-4,-1.1268731E-2,1.2845199E-2,-3.7717936E-3,1.7591214E-2,2.7829275E-2,-1.8330097E-2,9.239697E-3],"split_indices":[5,4,11,2,9,13,22,0,0,0,0,0,0,0,0],"split_type":[0,0,0,0,0,0,0,0,0,0,0,0,0,0,0],"sum_hessian":[3.982E3,3.75E3,2.32E2,3.001E3,7.49E2,2.19E2,1.3E1,1.957E3,1.044E3,5.88E2,1.61E2,1.13E2,1.06E2,6E0,7E0],"tree_param":{"num_deleted":"0","num_feature":"28","num_nodes":"15","size_leaf_vector":"1"}},{"base_weights":[-9.792328E-4,-3.552698E-2,3.0507556E-1,-7.0154096E-4,-2.9957315E-1,1.5156114E-1,4.020276E-1,-1.1875693E-3,1.9588193E-2,-1.7108453E-2,1.09572625E-2,1.5195876E-3,1.490999E-2,2.2876259E-2,1.9793054E-3],"categories":[],"categories_nodes":[],"categories_segments":[],"categories_sizes":[],"default_left":[0,0,0,0,0,0,0,0,0,0,0,0,0,0,0],"id":43,"left_children":[1,3,5,7,9,11,13,-1,-1,-1,-1,-1,-1,-1,-1],"loss_changes":[4.201356E1,3.2825367E1,5.881775E0,2.8540617E1,9.278923E0,2.7654412E0,4.880375E0,0E0,0E0,0E0,0E0,0E0,0E0,0E0,0E0],"parents":[2147483647,0,0,1,1,2,2,3,3,4,4,5,5,6,6],"right_children":[2,4,6,8,10,12,14,-1,-1,-1,-1,-1,-1,-1,-1],"split_conditions":[1.262E0,4.402E1,3.8763535E1,1E0,2E0,1.686E0,4.5744392E1,-1.1875693E-3,1.9588193E-2,-1.7108453E-2,1.09572625E-2,1.5195876E-3,1.490999E-2,2.2876259E-2,1.9793054E-3],"split_indices":[4,8,26,5,1,4,26,0,0,0,0,0,0,0,0],"split_type":[0,0,0,0,0,0,0,0,0,0,0,0,0,0,0],"sum_hessian":[3.974E3,3.572E3,4.02E2,3.157E3,4.15E2,1.57E2,2.45E2,2.983E3,1.74E2,3.84E2,3.1E1,8.7E1,7E1,2.12E2,3.3E1],"tree_param":{"num_deleted":"0","num_feature":"28","num_nodes":"15","size_leaf_vector":"1"}},{"base_weights":[7.744321E-4,-1.04444616E-1,9.962147E-2,-4.0425017E-2,-2.84932E-1,-2.0380427E-1,1.6960064E-1,1.2120027E-2,-4.1178265E-3,-1.849591E-2,-4.7529484E-3,-3.8392346E-3,-1.6461663E-2,1.8681025E-2,-3.5986595E-3],"categories":[],"categories_nodes":[],"categories_segments":[],"categories_sizes":[],"default_left":[0,0,0,0,0,0,0,0,0,0,0,0,0,0,0],"id":44,"left_children":[1,3,5,7,9,11,13,-1,-1,-1,-1,-1,-1,-1,-1],"loss_changes":[4.0977856E1,2.2002365E1,4.317758E1,1.6725574E1,7.970497E0,6.0041857E0,8.147728E1,0E0,0E0,0E0,0E0,0E0,0E0,0E0,0E0],"parents":[2147483647,0,0,1,1,2,2,3,3,4,4,5,5,6,6],"right_children":[2,4,6,8,10,12,14,-1,-1,-1,-1,-1,-1,-1,-1],"split_conditions":[3.913193E1,2.294E1,-8.889227E1,3.54E0,2.04E1,1.215E1,-8.050688E1,1.2120027E-2,-4.1178265E-3,-1.849591E-2,-4.7529484E-3,-3.8392346E-3,-1.6461663E-2,1.8681025E-2,-3.5986595E-3],"split_indices":[26,8,27,2,17,8,27,0,0,0,0,0,0,0,0],"split_type":[0,0,0,0,0,0,0,0,0,0,0,0,0,0,0],"sum_hessian":[3.938E3,1.907E3,2.031E3,1.409E3,4.98E2,3.8E2,1.651E3,1.81E2,1.228E3,3.43E2,1.55E2,1.9E2,1.9E2,8.95E2,7.56E2],"tree_param":{"num_deleted":"0","num_feature":"28","num_nodes":"15","size_leaf_vector":"1"}},{"base_weights":[1.0341466E-3,-1.017406E-1,9.8035984E-2,-2.2069891E-1,-1.8103698E-2,-1.511917E-1,1.718124E-1,-1.586177E-2,-3.9239894E-3,1.5386024E-3,-9.727312E-3,-1.2609996E-2,-5.226747E-4,1.8516904E-2,-2.2320661E-3],"categories":[],"categories_nodes":[],"categories_segments":[],"categories_sizes":[],"default_left":[0,0,0,0,0,0,0,0,0,0,0,0,0,0,0],"id":45,"left_children":[1,3,5,7,9,11,13,-1,-1,-1,-1,-1,-1,-1,-1],"loss_changes":[3.96776E1,1.9194181E1,3.7684875E1,1.0877811E1,9.818956E0,6.624052E0,6.798723E1,0E0,0E0,0E0,0E0,0E0,0E0,0E0,0E0],"parents":[2147483647,0,0,1,1,2,2,3,3,4,4,5,5,6,6],"right_children":[2,4,6,8,10,12,14,-1,-1,-1,-1,-1,-1,-1,-1],"split_conditions":[3.913193E1,2.29E1,-8.755354E1,1E0,4.658E0,1E0,-8.0355965E1,-1.586177E-2,-3.9239894E-3,1.5386024E-3,-9.727312E-3,-1.2609996E-2,-5.226747E-4,1.8516904E-2,-2.2320661E-3],"split_indices":[26,14,27,6,9,6,27,0,0,0,0,0,0,0,0],"split_type":[0,0,0,0,0,0,0,0,0,0,0,0,0,0,0],"sum_hessian":[3.978E3,1.931E3,2.047E3,7.96E2,1.135E3,4.67E2,1.58E3,4.73E2,3.23E2,8.89E2,2.46E2,2.71E2,1.96E2,8.24E2,7.56E2],"tree_param":{"num_deleted":"0","num_feature":"28","num_nodes":"15","size_leaf_vector":"1"}},{"base_weights":[-4.751691E-3,2.2286811E-1,-4.809749E-2,2.897311E-1,-8.755206E-3,-9.040998E-2,2.0788623E-1,3.2518033E-2,1.2739653E-2,2.4864005E-3,-1.6146885E-2,-9.004616E-3,1.4470799E-3,1.4298737E-2,2.6832449E-3],"categories":[],"categories_nodes":[],"categories_segments":[],"categories_sizes":[],"default_left":[0,0,0,0,0,0,0,0,0,0,0,0,0,0,0],"id":46,"left_children":[1,3,5,7,9,11,13,-1,-1,-1,-1,-1,-1,-1,-1],"loss_changes":[3.9478428E1,9.942326E0,3.6432735E1,6.005821E0,2.689294E0,3.0921995E1,5.69516E0,0E0,0E0,0E0,0E0,0E0,0E0,0E0,0E0],"parents":[2147483647,0,0,1,1,2,2,3,3,4,4,5,5,6,6],"right_children":[2,4,6,8,10,12,14,-1,-1,-1,-1,-1,-1,-1,-1],"split_conditions":[3.97E0,2.81E1,1.084E0,3.1E-1,9.283E1,1E0,1.57E1,3.2518033E-2,1.2739653E-2,2.4864005E-3,-1.6146885E-2,-9.004616E-3,1.4470799E-3,1.4298737E-2,2.6832449E-3],"split_indices":[2,8,4,2,8,6,8,0,0,0,0,0,0,0,0],"split_type":[0,0,0,0,0,0,0,0,0,0,0,0,0,0,0],"sum_hessian":[4.001E3,6.39E2,3.362E3,4.96E2,1.43E2,2.886E3,4.76E2,4.2E1,4.54E2,1.21E2,2.2E1,1.648E3,1.238E3,3.15E2,1.61E2],"tree_param":{"num_deleted":"0","num_feature":"28","num_nodes":"15","size_leaf_vector":"1"}},{"base_weights":[-5.3714414E-4,-5.4749202E-2,1.6528414E-1,-7.600942E-2,3.3155054E-1,-1.0201419E-1,2.0628309E-1,-9.360206E-3,1.1635315E-4,9.094692E-3,2.1792445E-2,-6.8562217E-3,2.6512897E-2,1.6006038E-2,2.0164826E-3],"categories":[],"categories_nodes":[],"categories_segments":[],"categories_sizes":[],"default_left":[0,0,0,0,0,0,0,0,0,0,0,0,0,0,0],"id":47,"left_children":[1,3,5,7,9,11,13,-1,-1,-1,-1,-1,-1,-1,-1],"loss_changes":[3.6126846E1,2.4884485E1,1.0880833E1,2.5044481E1,2.325161E0,2.9636965E0,1.6179058E1,0E0,0E0,0E0,0E0,0E0,0E0,0E0,0E0],"parents":[2147483647,0,0,1,1,2,2,3,3,4,4,5,5,6,6],"right_children":[2,4,6,8,10,12,14,-1,-1,-1,-1,-1,-1,-1,-1],"split_conditions":[1E0,1E0,-8.771722E1,2.36E1,4.83E1,1E0,-8.120002E1,-9.360206E-3,1.1635315E-4,9.094692E-3,2.1792445E-2,-6.8562217E-3,2.6512897E-2,1.6006038E-2,2.0164826E-3],"split_indices":[1,5,27,14,15,5,27,0,0,0,0,0,0,0,0],"split_type":[0,0,0,0,0,0,0,0,0,0,0,0,0,0,0],"sum_hessian":[4.018E3,3.029E3,9.89E2,2.872E3,1.57E2,1.31E2,8.58E2,1.187E3,1.685E3,6.6E1,9.1E1,1.25E2,6E0,5.08E2,3.5E2],"tree_param":{"num_deleted":"0","num_feature":"28","num_nodes":"15","size_leaf_vector":"1"}},{"base_weights":[2.1279252E-3,-1.23299204E-1,7.3706515E-2,-1.4890328E-1,3.22503E-1,1.319542E-1,-8.61194E-2,-1.4503439E-2,-2.8529991E-3,2.7881647E-2,1.0183441E-2,5.066098E-3,2.083774E-2,-1.510642E-2,-1.4404556E-3],"categories":[],"categories_nodes":[],"categories_segments":[],"categories_sizes":[],"default_left":[0,0,0,0,0,0,0,0,0,0,0,0,0,0,0],"id":48,"left_children":[1,3,5,7,9,11,13,-1,-1,-1,-1,-1,-1,-1,-1],"loss_changes":[3.6355637E1,1.6821177E1,2.4025118E1,1.7996162E1,2.0456152E0,1.6403187E1,8.487705E0,0E0,0E0,0E0,0E0,0E0,0E0,0E0,0E0],"parents":[2147483647,0,0,1,1,2,2,3,3,4,4,5,5,6,6],"right_children":[2,4,6,8,10,12,14,-1,-1,-1,-1,-1,-1,-1,-1],"split_conditions":[2.5E-1,1E0,2.294E1,1.18E1,9.94E2,1.6E0,7.5E0,-1.4503439E-2,-2.8529991E-3,2.7881647E-2,1.0183441E-2,5.066098E-3,2.083774E-2,-1.510642E-2,-1.4404556E-3],"split_indices":[4,5,8,17,3,4,17,0,0,0,0,0,0,0,0],"split_type":[0,0,0,0,0,0,0,0,0,0,0,0,0,0,0],"sum_hessian":[4.048E3,1.47E3,2.578E3,1.391E3,7.9E1,1.89E3,6.88E2,5.47E2,8.44E2,2.5E1,5.4E1,1.708E3,1.82E2,1.43E2,5.45E2],"tree_param":{"num_deleted":"0","num_feature":"28","num_nodes":"15","size_leaf_vector":"1"}},{"base_weights":[-2.2649409E-3,-1.2992042E-1,7.160502E-2,1.3281079E-1,-1.8815906E-1,-3.8494047E-2,1.5492229E-1,9.30583E-3,-9.534651E-3,-1.5885575E-2,-4.6338597E-3,3.8929065E-5,-1.7904837E-2,-3.6848374E-3,1.0720948E-2],"categories":[],"categories_nodes":[],"categories_segments":[],"categories_sizes":[],"default_left":[0,0,0,0,0,0,0,0,0,0,0,0,0,0,0],"id":49,"left_children":[1,3,5,7,9,11,13,-1,-1,-1,-1,-1,-1,-1,-1],"loss_changes":[3.7810196E1,2.2523151E1,2.3308239E1,4.6393504E0,1.4822884E1,1.3767501E1,1.9698467E1,0E0,0E0,0E0,0E0,0E0,0E0,0E0,0E0],"parents":[2147483647,0,0,1,1,2,2,3,3,4,4,5,5,6,6],"right_children":[2,4,6,8,10,12,14,-1,-1,-1,-1,-1,-1,-1,-1],"split_conditions":[2.5E-1,4.97E0,3.8222954E1,3.827E1,1.2E1,4.611E1,-8.771722E1,9.30583E-3,-9.534651E-3,-1.5885575E-2,-4.6338597E-3,3.8929065E-5,-1.7904837E-2,-3.6848374E-3,1.0720948E-2],"split_indices":[4,2,26,8,17,8,27,0,0,0,0,0,0,0,0],"split_type":[0,0,0,0,0,0,0,0,0,0,0,0,0,0,0],"sum_hessian":[4.007E3,1.469E3,2.538E3,2.66E2,1.203E3,1.093E3,1.445E3,2.29E2,3.7E1,5.09E2,6.94E2,9.74E2,1.19E2,2.98E2,1.147E3],"tree_param":{"num_deleted":"0","num_feature":"28","num_nodes":"15","size_leaf_vector":"1"}},{"base_weights":[3.9950884E-3,-7.576584E-2,1.0601673E-1,-1.2889932E-1,1.2444649E-1,1.7995003E-1,-8.749331E-3,-7.6117963E-3,1.5481578E-2,1.5518864E-3,1.2596585E-2,3.892051E-3,1.2725458E-2,1.6657937E-3,-1.1833423E-2],"categories":[],"categories_nodes":[],"categories_segments":[],"categories_sizes":[],"default_left":[0,0,0,0,0,0,0,0,0,0,0,0,0,0,0],"id":50,"left_children":[1,3,5,7,9,11,13,-1,-1,-1,-1,-1,-1,-1,-1],"loss_changes":[3.2633656E1,2.3951937E1,1.4952356E1,1.8237375E1,5.58457E0,8.100643E0,6.643571E0,0E0,0E0,0E0,0E0,0E0,0E0,0E0,0E0],"parents":[2147483647,0,0,1,1,2,2,3,3,4,4,5,5,6,6],"right_children":[2,4,6,8,10,12,14,-1,-1,-1,-1,-1,-1,-1,-1],"split_conditions":[1E0,8.56E-1,1.532E1,1E0,4.223849E1,3.8222954E1,6.828E1,-7.6117963E-3,1.5481578E-2,1.5518864E-3,1.2596585E-2,3.892051E-3,1.2725458E-2,1.6657937E-3,-1.1833423E-2],"split_indices":[6,4,8,5,26,26,8,0,0,0,0,0,0,0,0],"split_type":[0,0,0,0,0,0,0,0,0,0,0,0,0,0,0],"sum_hessian":[4.008E3,2.249E3,1.759E3,1.778E3,4.71E2,1.07E3,6.89E2,1.689E3,8.9E1,2.73E2,1.98E2,4.53E2,6.17E2,5.82E2,1.07E2],"tree_param":{"num_deleted":"0","num_feature":"28","num_nodes":"15","size_leaf_vector":"1"}},{"base_weights":[3.947734E-3,-1.8390892E-2,3.6034426E-1,-6.525739E-2,1.2975426E-1,3.7873748E-1,3.7112195E-2,-7.6826587E-3,1.4554628E-3,4.457172E-3,2.2739068E-2,1.6959583E-2,2.6611252E-2,1.6029833E-2,-1.3894302E-2],"categories":[],"categories_nodes":[],"categories_segments":[],"categories_sizes":[],"default_left":[0,0,0,0,0,0,0,0,0,0,0,0,0,0,0],"id":51,"left_children":[1,3,5,7,9,11,13,-1,-1,-1,-1,-1,-1,-1,-1],"loss_changes":[3.1583921E1,2.5892633E1,1.335556E0,2.365706E1,1.1731923E1,1.0737553E0,1.3435197E0,0E0,0E0,0E0,0E0,0E0,0E0,0E0,0E0],"parents":[2147483647,0,0,1,1,2,2,3,3,4,4,5,5,6,6],"right_children":[2,4,6,8,10,12,14,-1,-1,-1,-1,-1,-1,-1,-1],"split_conditions":[1E0,1E0,1.5273E1,2.83E1,3E0,1.084E0,3.22E0,-7.6826587E-3,1.4554628E-3,4.457172E-3,2.2739068E-2,1.6959583E-2,2.6611252E-2,1.6029833E-2,-1.3894302E-2],"split_indices":[5,1,9,14,1,4,23,0,0,0,0,0,0,0,0],"split_type":[0,0,0,0,0,0,0,0,0,0,0,0,0,0,0],"sum_hessian":[3.961E3,3.728E3,2.33E2,2.833E3,8.95E2,2.2E2,1.3E1,1.463E3,1.37E3,7.97E2,9.8E1,1.78E2,4.2E1,7E0,6E0],"tree_param":{"num_deleted":"0","num_feature":"28","num_nodes":"15","size_leaf_vector":"1"}},{"base_weights":[9.367275E-4,6.1399166E-2,-1.397584E-1,-3.8573775E-2,1.4623018E-1,-2.4253078E-1,-1.8744301E-2,-2.407477E-3,4.86866E-2,1.1734852E-2,-5.366701E-4,-1.6313566E-2,-1.7237697E-3,5.3771283E-3,-5.1274323E-3],"categories":[],"categories_nodes":[],"categories_segments":[],"categories_sizes":[],"default_left":[0,0,0,0,0,0,0,0,0,0,0,0,0,0,0],"id":52,"left_children":[1,3,5,7,9,11,13,-1,-1,-1,-1,-1,-1,-1,-1],"loss_changes":[3.4053345E1,2.3771141E1,1.4930927E1,1.2420293E1,2.1076202E1,1.127742E1,5.8737254E0,0E0,0E0,0E0,0E0,0E0,0E0,0E0,0E0],"parents":[2147483647,0,0,1,1,2,2,3,3,4,4,5,5,6,6],"right_children":[2,4,6,8,10,12,14,-1,-1,-1,-1,-1,-1,-1,-1],"split_conditions":[3.018E1,3.913193E1,1E0,4.6681E3,-8.050688E1,6.8E-1,7.02E0,-2.407477E-3,4.86866E-2,1.1734852E-2,-5.366701E-4,-1.6313566E-2,-1.7237697E-3,5.3771283E-3,-5.1274323E-3],"split_indices":[2,26,6,18,27,4,8,0,0,0,0,0,0,0,0],"split_type":[0,0,0,0,0,0,0,0,0,0,0,0,0,0,0],"sum_hessian":[4.002E3,2.8E3,1.202E3,1.285E3,1.515E3,6.49E2,5.53E2,1.274E3,1.1E1,9.69E2,5.46E2,4.62E2,1.87E2,2.2E2,3.33E2],"tree_param":{"num_deleted":"0","num_feature":"28","num_nodes":"15","size_leaf_vector":"1"}},{"base_weights":[-1.8008424E-3,8.74593E-2,-9.541305E-2,4.1899927E-2,2.7225232E-1,-1.8274677E-1,1.657904E-2,1.4195751E-3,3.518031E-2,1.61162E-2,2.9190136E-3,-1.4073037E-2,-2.9640752E-3,-3.149264E-3,6.6108718E-3],"categories":[],"categories_nodes":[],"categories_segments":[],"categories_sizes":[],"default_left":[0,0,0,0,0,0,0,0,0,0,0,0,0,0,0],"id":53,"left_children":[1,3,5,7,9,11,13,-1,-1,-1,-1,-1,-1,-1,-1],"loss_changes":[3.373331E1,1.7350945E1,1.9297379E1,1.4735977E1,4.312353E0,1.3453262E1,7.9646473E0,0E0,0E0,0E0,0E0,0E0,0E0,0E0,0E0],"parents":[2147483647,0,0,1,1,2,2,3,3,4,4,5,5,6,6],"right_children":[2,4,6,8,10,12,14,-1,-1,-1,-1,-1,-1,-1,-1],"split_conditions":[1.764E1,9.04E-1,1E0,2.7223E3,7.575E2,4.43E-1,1.95E1,1.4195751E-3,3.518031E-2,1.61162E-2,2.9190136E-3,-1.4073037E-2,-2.9640752E-3,-3.149264E-3,6.6108718E-3],"split_indices":[2,4,6,18,11,4,22,0,0,0,0,0,0,0,0],"split_type":[0,0,0,0,0,0,0,0,0,0,0,0,0,0,0],"sum_hessian":[4.035E3,2.065E3,1.97E3,1.658E3,4.07E2,1.107E3,8.63E2,1.626E3,3.2E1,3.29E2,7.8E1,6.14E2,4.93E2,5.11E2,3.52E2],"tree_param":{"num_deleted":"0","num_feature":"28","num_nodes":"15","size_leaf_vector":"1"}},{"base_weights":[-4.5107105E-3,4.355346E-2,-1.492782E-1,2.3926139E-2,3.5393775E-1,-2.3513146E-1,-3.4760006E-2,-1.9636748E-3,6.078433E-3,1.212237E-2,2.2129677E-2,-9.791143E-3,-2.6859367E-2,3.3960585E-3,-1.0934106E-2],"categories":[],"categories_nodes":[],"categories_segments":[],"categories_sizes":[],"default_left":[0,0,0,0,0,0,0,0,0,0,0,0,0,0,0],"id":54,"left_children":[1,3,5,7,9,11,13,-1,-1,-1,-1,-1,-1,-1,-1],"loss_changes":[2.796788E1,1.8327251E1,9.816259E0,1.752622E1,1.5934753E0,6.6130867E0,8.169509E0,0E0,0E0,0E0,0E0,0E0,0E0,0E0,0E0],"parents":[2147483647,0,0,1,1,2,2,3,3,4,4,5,5,6,6],"right_children":[2,4,6,8,10,12,14,-1,-1,-1,-1,-1,-1,-1,-1],"split_conditions":[4.197E0,1E0,4.0534164E1,3.22E1,3.9437286E1,2.8556E3,-8.004862E1,-1.9636748E-3,6.078433E-3,1.212237E-2,2.2129677E-2,-9.791143E-3,-2.6859367E-2,3.3960585E-3,-1.0934106E-2],"split_indices":[9,5,26,14,26,11,27,0,0,0,0,0,0,0,0],"split_type":[0,0,0,0,0,0,0,0,0,0,0,0,0,0,0],"sum_hessian":[4.016E3,3.015E3,1.001E3,2.837E3,1.78E2,5.71E2,4.3E2,1.722E3,1.115E3,8.1E1,9.7E1,5.07E2,6.4E1,2.76E2,1.54E2],"tree_param":{"num_deleted":"0","num_feature":"28","num_nodes":"15","size_leaf_vector":"1"}},{"base_weights":[-2.960827E-3,-7.649808E-2,9.040033E-2,-1.0123E-1,3.3071214E-1,1.5739062E-1,-7.1979063E-3,-8.991981E-3,-5.8621554E-5,-1.22222E-2,1.7855372E-2,5.498638E-3,1.3932248E-2,-1.5356836E-3,1.281813E-2],"categories":[],"categories_nodes":[],"categories_segments":[],"categories_sizes":[],"default_left":[0,0,0,0,0,0,0,0,0,0,0,0,0,0,0],"id":55,"left_children":[1,3,5,7,9,11,13,-1,-1,-1,-1,-1,-1,-1,-1],"loss_changes":[2.7213589E1,2.2348217E1,1.1431735E1,1.6436285E1,2.026599E0,5.8871E0,4.3919635E0,0E0,0E0,0E0,0E0,0E0,0E0,0E0,0E0],"parents":[2147483647,0,0,1,1,2,2,3,3,4,4,5,5,6,6],"right_children":[2,4,6,8,10,12,14,-1,-1,-1,-1,-1,-1,-1,-1],"split_conditions":[1E0,1E0,1.431E1,2.96E1,4.6E0,7.51E0,6.92E2,-8.991981E-3,-5.8621554E-5,-1.22222E-2,1.7855372E-2,5.498638E-3,1.3932248E-2,-1.5356836E-3,1.281813E-2],"split_indices":[6,5,8,14,14,21,18,0,0,0,0,0,0,0,0],"split_type":[0,0,0,0,0,0,0,0,0,0,0,0,0,0,0],"sum_hessian":[3.962E3,2.217E3,1.745E3,2.091E3,1.26E2,1.035E3,7.1E2,1.17E3,9.21E2,5E0,1.21E2,7.46E2,2.89E2,6.53E2,5.7E1],"tree_param":{"num_deleted":"0","num_feature":"28","num_nodes":"15","size_leaf_vector":"1"}},{"base_weights":[8.9827115E-3,6.9147184E-2,-1.1300677E-1,1.0443642E-1,-1.5775242E-1,-2.0804136E-1,5.8085765E-3,-2.6625107E-4,7.932186E-3,-5.708894E-3,-2.4631128E-2,-1.8109685E-2,-6.5247393E-3,-4.4917483E-3,5.767931E-3],"categories":[],"categories_nodes":[],"categories_segments":[],"categories_sizes":[],"default_left":[0,0,0,0,0,0,0,0,0,0,0,0,0,0,0],"id":56,"left_children":[1,3,5,7,9,11,13,-1,-1,-1,-1,-1,-1,-1,-1],"loss_changes":[2.9383179E1,2.1486225E1,1.4948885E1,1.3831781E1,5.1507177E0,8.689644E0,6.1738353E0,0E0,0E0,0E0,0E0,0E0,0E0,0E0,0E0],"parents":[2147483647,0,0,1,1,2,2,3,3,4,4,5,5,6,6],"right_children":[2,4,6,8,10,12,14,-1,-1,-1,-1,-1,-1,-1,-1],"split_conditions":[2.747E1,3.933E1,2.96E1,2.2E-1,1.3635E2,2.2E-1,4.25E-1,-2.6625107E-4,7.932186E-3,-5.708894E-3,-2.4631128E-2,-1.8109685E-2,-6.5247393E-3,-4.4917483E-3,5.767931E-3],"split_indices":[2,8,14,4,8,4,4,0,0,0,0,0,0,0,0],"split_type":[0,0,0,0,0,0,0,0,0,0,0,0,0,0,0],"sum_hessian":[4.002E3,2.681E3,1.321E3,2.321E3,3.6E2,7.34E2,5.87E2,7.67E2,1.554E3,3.2E2,4E1,2.44E2,4.9E2,3.13E2,2.74E2],"tree_param":{"num_deleted":"0","num_feature":"28","num_nodes":"15","size_leaf_vector":"1"}},{"base_weights":[4.1836477E-3,1.015614E-1,-7.202951E-2,3.6033934E-1,7.542695E-2,-2.4957734E-1,-2.5593953E-2,2.9208874E-2,1.4250564E-2,5.451735E-3,-4.313333E-3,-2.8269927E-3,-1.7746694E-2,-3.0246347E-3,8.023731E-3],"categories":[],"categories_nodes":[],"categories_segments":[],"categories_sizes":[],"default_left":[0,0,0,0,0,0,0,0,0,0,0,0,0,0,0],"id":57,"left_children":[1,3,5,7,9,11,13,-1,-1,-1,-1,-1,-1,-1,-1],"loss_changes":[2.959223E1,1.177129E1,1.8400871E1,2.4443932E0,8.662864E0,9.355169E0,1.1519281E1,0E0,0E0,0E0,0E0,0E0,0E0,0E0,0E0],"parents":[2147483647,0,0,1,1,2,2,3,3,4,4,5,5,6,6],"right_children":[2,4,6,8,10,12,14,-1,-1,-1,-1,-1,-1,-1,-1],"split_conditions":[1.41E1,9.9E-1,7.5E0,2.3E-1,3.42E1,6.72E0,1E0,2.9208874E-2,1.4250564E-2,5.451735E-3,-4.313333E-3,-2.8269927E-3,-1.7746694E-2,-3.0246347E-3,8.023731E-3],"split_indices":[2,2,17,2,8,8,7,0,0,0,0,0,0,0,0],"split_type":[0,0,0,0,0,0,0,0,0,0,0,0,0,0,0],"sum_hessian":[3.985E3,1.75E3,2.235E3,1.59E2,1.591E3,4.62E2,1.773E3,3.8E1,1.21E2,1.318E3,2.73E2,1.64E2,2.98E2,1.494E3,2.79E2],"tree_param":{"num_deleted":"0","num_feature":"28","num_nodes":"15","size_leaf_vector":"1"}},{"base_weights":[3.3873804E-3,6.374534E-2,-1.1911002E-1,-9.067352E-2,1.02495104E-1,-1.8781517E-1,1.2797441E-2,-2.6978552E-3,-1.9058656E-2,1.2310145E-2,-3.166535E-4,-1.3364382E-2,-2.8419653E-3,-1.1660906E-3,1.332722E-2],"categories":[],"categories_nodes":[],"categories_segments":[],"categories_sizes":[],"default_left":[0,0,0,0,0,0,0,0,0,0,0,0,0,0,0],"id":58,"left_children":[1,3,5,7,9,11,13,-1,-1,-1,-1,-1,-1,-1,-1],"loss_changes":[2.9147993E1,1.5819397E1,1.1810511E1,5.5889544E0,3.307172E1,8.862474E0,4.1181955E0,0E0,0E0,0E0,0E0,0E0,0E0,0E0,0E0],"parents":[2147483647,0,0,1,1,2,2,3,3,4,4,5,5,6,6],"right_children":[2,4,6,8,10,12,14,-1,-1,-1,-1,-1,-1,-1,-1],"split_conditions":[2.747E1,-8.817351E1,5.54E-1,7.198E0,-8.101368E1,1.7E1,1.6E0,-2.6978552E-3,-1.9058656E-2,1.2310145E-2,-3.166535E-4,-1.3364382E-2,-2.8419653E-3,-1.1660906E-3,1.332722E-2],"split_indices":[2,27,4,9,27,17,4,0,0,0,0,0,0,0,0],"split_type":[0,0,0,0,0,0,0,0,0,0,0,0,0,0,0],"sum_hessian":[3.941E3,2.641E3,1.3E3,5.29E2,2.112E3,8.55E2,4.45E2,4.71E2,5.8E1,9.1E2,1.202E3,5.31E2,3.24E2,3.9E2,5.5E1],"tree_param":{"num_deleted":"0","num_feature":"28","num_nodes":"15","size_leaf_vector":"1"}},{"base_weights":[-2.6247753E-3,-1.1121154E-1,5.9453644E-2,-5.103751E-2,-2.7774355E-1,1.077768E-1,-7.515701E-2,-3.2239985E-3,3.4498278E-2,-3.8792524E-2,-1.1811148E-2,4.713803E-3,3.080973E-2,-9.976297E-3,3.6418322E-4],"categories":[],"categories_nodes":[],"categories_segments":[],"categories_sizes":[],"default_left":[0,0,0,0,0,0,0,0,0,0,0,0,0,0,0],"id":59,"left_children":[1,3,5,7,9,11,13,-1,-1,-1,-1,-1,-1,-1,-1],"loss_changes":[2.692144E1,1.4513315E1,1.6533585E1,1.0630144E1,7.677967E0,1.2706566E1,6.9004793E0,0E0,0E0,0E0,0E0,0E0,0E0,0E0,0E0],"parents":[2147483647,0,0,1,1,2,2,3,3,4,4,5,5,6,6],"right_children":[2,4,6,8,10,12,14,-1,-1,-1,-1,-1,-1,-1,-1],"split_conditions":[2.5E-1,3.4E1,2.331E1,2.7223E3,8.4E0,2.428E0,1.18E1,-3.2239985E-3,3.4498278E-2,-3.8792524E-2,-1.1811148E-2,4.713803E-3,3.080973E-2,-9.976297E-3,3.6418322E-4],"split_indices":[4,2,8,18,14,4,17,0,0,0,0,0,0,0,0],"split_type":[0,0,0,0,0,0,0,0,0,0,0,0,0,0,0],"sum_hessian":[3.991E3,1.452E3,2.539E3,1.068E3,3.84E2,1.869E3,6.7E2,1.05E3,1.8E1,2.8E1,3.56E2,1.822E3,4.7E1,2.67E2,4.03E2],"tree_param":{"num_deleted":"0","num_feature":"28","num_nodes":"15","size_leaf_vector":"1"}},{"base_weights":[3.6866125E-3,2.4260601E-1,-2.1229062E-2,3.3142784E-1,7.246023E-2,-4.2718016E-2,2.7118763E-1,2.9644692E-2,1.5087629E-2,2.1057941E-2,9.935561E-4,-1.240559E-3,-1.9948946E-2,1.11630475E-2,2.728872E-2],"categories":[],"categories_nodes":[],"categories_segments":[],"categories_sizes":[],"default_left":[0,0,0,0,0,0,0,0,0,0,0,0,0,0,0],"id":60,"left_children":[1,3,5,7,9,11,13,-1,-1,-1,-1,-1,-1,-1,-1],"loss_changes":[2.3951744E1,5.6784077E0,2.286151E1,1.6636353E0,2.368111E0,2.1587004E1,3.0780964E0,0E0,0E0,0E0,0E0,0E0,0E0,0E0,0E0],"parents":[2147483647,0,0,1,1,2,2,3,3,4,4,5,5,6,6],"right_children":[2,4,6,8,10,12,14,-1,-1,-1,-1,-1,-1,-1,-1],"split_conditions":[2.24E0,1.724E1,2E0,2.3E-1,3.1E-1,7.374E1,4E0,2.9644692E-2,1.5087629E-2,2.1057941E-2,9.935561E-4,-1.240559E-3,-1.9948946E-2,1.11630475E-2,2.728872E-2],"split_indices":[2,8,1,2,2,8,1,0,0,0,0,0,0,0,0],"split_type":[0,0,0,0,0,0,0,0,0,0,0,0,0,0,0],"sum_hessian":[4.018E3,3.79E2,3.639E3,2.48E2,1.31E2,3.391E3,2.48E2,2.3E1,2.25E2,1.6E1,1.15E2,3.23E3,1.61E2,2.13E2,3.5E1],"tree_param":{"num_deleted":"0","num_feature":"28","num_nodes":"15","size_leaf_vector":"1"}},{"base_weights":[-2.4758969E-3,-1.05285525E-1,5.601021E-2,-4.8967898E-2,-2.774405E-1,3.1757012E-2,2.9839244E-1,-1.045016E-2,-9.5585696E-5,-3.378371E-2,-1.1798534E-2,4.543317E-3,-3.0238668E-3,1.7360779E-2,6.458759E-3],"categories":[],"categories_nodes":[],"categories_segments":[],"categories_sizes":[],"default_left":[0,0,0,0,0,0,0,0,0,0,0,0,0,0,0],"id":61,"left_children":[1,3,5,7,9,11,13,-1,-1,-1,-1,-1,-1,-1,-1],"loss_changes":[2.4122694E1,1.406052E1,1.4983067E1,8.247164E0,5.661648E0,1.2684225E1,1.8242283E0,0E0,0E0,0E0,0E0,0E0,0E0,0E0,0E0],"parents":[2147483647,0,0,1,1,2,2,3,3,4,4,5,5,6,6],"right_children":[2,4,6,8,10,12,14,-1,-1,-1,-1,-1,-1,-1,-1],"split_conditions":[2.5E-1,3.569E1,1.6E0,-8.817351E1,8.4E0,1.616E1,4.563E0,-1.045016E-2,-9.5585696E-5,-3.378371E-2,-1.1798534E-2,4.543317E-3,-3.0238668E-3,1.7360779E-2,6.458759E-3],"split_indices":[4,2,4,27,14,8,9,0,0,0,0,0,0,0,0],"split_type":[0,0,0,0,0,0,0,0,0,0,0,0,0,0,0],"sum_hessian":[4.009E3,1.454E3,2.555E3,1.097E3,3.57E2,2.324E3,2.31E2,2.48E2,8.49E2,3.2E1,3.25E2,1.417E3,9.07E2,1.78E2,5.3E1],"tree_param":{"num_deleted":"0","num_feature":"28","num_nodes":"15","size_leaf_vector":"1"}},{"base_weights":[-6.1664623E-3,-7.452814E-2,8.153784E-2,-1.2118147E-1,8.532251E-2,-2.0575735E-3,1.446123E-1,-6.722224E-3,2.7974516E-2,7.173256E-3,-2.1545133E-3,1.0651256E-3,-1.3558147E-2,9.015634E-3,-4.28812E-3],"categories":[],"categories_nodes":[],"categories_segments":[],"categories_sizes":[],"default_left":[0,0,0,0,0,0,0,0,0,0,0,0,0,0,0],"id":62,"left_children":[1,3,5,7,9,11,13,-1,-1,-1,-1,-1,-1,-1,-1],"loss_changes":[2.374201E1,1.6614464E1,9.157477E0,1.5596554E1,3.7717443E0,4.72036E0,8.158915E0,0E0,0E0,0E0,0E0,0E0,0E0,0E0,0E0],"parents":[2147483647,0,0,1,1,2,2,3,3,4,4,5,5,6,6],"right_children":[2,4,6,8,10,12,14,-1,-1,-1,-1,-1,-1,-1,-1],"split_conditions":[1E0,8.46E-1,3.836848E1,2.2408E3,2.757E0,5.769E1,-7.288456E1,-6.722224E-3,2.7974516E-2,7.173256E-3,-2.1545133E-3,1.0651256E-3,-1.3558147E-2,9.015634E-3,-4.28812E-3],"split_indices":[6,4,26,18,9,8,27,0,0,0,0,0,0,0,0],"split_type":[0,0,0,0,0,0,0,0,0,0,0,0,0,0,0],"sum_hessian":[3.958E3,2.225E3,1.733E3,1.723E3,5.02E2,7.45E2,9.88E2,1.691E3,3.2E1,3.46E2,1.56E2,6.86E2,5.9E1,8.56E2,1.32E2],"tree_param":{"num_deleted":"0","num_feature":"28","num_nodes":"15","size_leaf_vector":"1"}},{"base_weights":[-1.9036584E-3,-9.3205556E-2,5.8935843E-2,-1.3372377E-1,1.0367887E-1,1.0745527E-1,-4.797364E-2,-7.729312E-3,1.281582E-2,6.5240636E-3,-1.4928686E-2,1.646577E-3,8.853252E-3,-3.2169782E-3,1.9235285E-2],"categories":[],"categories_nodes":[],"categories_segments":[],"categories_sizes":[],"default_left":[0,0,0,0,0,0,0,0,0,0,0,0,0,0,0],"id":63,"left_children":[1,3,5,7,9,11,13,-1,-1,-1,-1,-1,-1,-1,-1],"loss_changes":[2.2039106E1,1.2677008E1,1.23566065E1,1.0746151E1,2.9438922E0,8.470423E0,5.2540445E0,0E0,0E0,0E0,0E0,0E0,0E0,0E0,0E0],"parents":[2147483647,0,0,1,1,2,2,3,3,4,4,5,5,6,6],"right_children":[2,4,6,8,10,12,14,-1,-1,-1,-1,-1,-1,-1,-1],"split_conditions":[2.87E-1,1E0,1.917E1,1E0,6.828E1,3.9353004E1,2.206E0,-7.729312E-3,1.281582E-2,6.5240636E-3,-1.4928686E-2,1.646577E-3,8.853252E-3,-3.2169782E-3,1.9235285E-2],"split_indices":[4,7,8,5,8,26,4,0,0,0,0,0,0,0,0],"split_type":[0,0,0,0,0,0,0,0,0,0,0,0,0,0,0],"sum_hessian":[3.965E3,1.586E3,2.379E3,1.316E3,2.7E2,1.637E3,7.42E2,1.25E3,6.6E1,2.54E2,1.6E1,7.92E2,8.45E2,7.16E2,2.6E1],"tree_param":{"num_deleted":"0","num_feature":"28","num_nodes":"15","size_leaf_vector":"1"}},{"base_weights":[3.587901E-3,-8.6945824E-2,7.256096E-2,-1.5345994E-1,3.028568E-2,3.4467503E-2,2.0764862E-1,5.52369E-3,-9.946895E-3,2.8207222E-2,8.472212E-4,1.2800335E-3,3.236423E-2,1.2889564E-2,2.0867023E-3],"categories":[],"categories_nodes":[],"categories_segments":[],"categories_sizes":[],"default_left":[0,0,0,0,0,0,0,0,0,0,0,0,0,0,0],"id":64,"left_children":[1,3,5,7,9,11,13,-1,-1,-1,-1,-1,-1,-1,-1],"loss_changes":[2.4888756E1,1.3452143E1,1.1613928E1,1.323431E1,4.376676E0,9.517572E0,4.0940323E0,0E0,0E0,0E0,0E0,0E0,0E0,0E0,0E0],"parents":[2147483647,0,0,1,1,2,2,3,3,4,4,5,5,6,6],"right_children":[2,4,6,8,10,12,14,-1,-1,-1,-1,-1,-1,-1,-1],"split_conditions":[3.8222954E1,3.38E1,8.73E-1,4.84E0,1.36E-1,3.3764E3,5.786E2,5.52369E-3,-9.946895E-3,2.8207222E-2,8.472212E-4,1.2800335E-3,3.236423E-2,1.2889564E-2,2.0867023E-3],"split_indices":[26,14,4,2,9,18,11,0,0,0,0,0,0,0,0],"split_type":[0,0,0,0,0,0,0,0,0,0,0,0,0,0,0],"sum_hessian":[3.984E3,1.722E3,2.262E3,1.099E3,6.23E2,1.766E3,4.96E2,1.61E2,9.38E2,1.4E1,6.09E2,1.742E3,2.4E1,3.8E2,1.16E2],"tree_param":{"num_deleted":"0","num_feature":"28","num_nodes":"15","size_leaf_vector":"1"}},{"base_weights":[-1.8791539E-3,-8.312973E-2,5.8602814E-2,-1.8018901E-1,-1.3467014E-2,-1.4710274E-1,1.0554013E-1,-1.0131755E-2,1.1785711E-2,1.3708047E-3,-8.422809E-3,-1.1915366E-2,-5.0927635E-4,1.2645475E-2,-2.6610754E-3],"categories":[],"categories_nodes":[],"categories_segments":[],"categories_sizes":[],"default_left":[0,0,0,0,0,0,0,0,0,0,0,0,0,0,0],"id":65,"left_children":[1,3,5,7,9,11,13,-1,-1,-1,-1,-1,-1,-1,-1],"loss_changes":[1.9801699E1,1.1607837E1,2.2305378E1,6.7472744E0,6.37417E0,5.32985E0,4.4042435E1,0E0,0E0,0E0,0E0,0E0,0E0,0E0,0E0],"parents":[2147483647,0,0,1,1,2,2,3,3,4,4,5,5,6,6],"right_children":[2,4,6,8,10,12,14,-1,-1,-1,-1,-1,-1,-1,-1],"split_conditions":[3.8222954E1,2.36E1,-8.889227E1,1E0,4.747E0,1.58E1,-8.0355965E1,-1.0131755E-2,1.1785711E-2,1.3708047E-3,-8.422809E-3,-1.1915366E-2,-5.0927635E-4,1.2645475E-2,-2.6610754E-3],"split_indices":[26,14,27,5,9,17,27,0,0,0,0,0,0,0,0],"split_type":[0,0,0,0,0,0,0,0,0,0,0,0,0,0,0],"sum_hessian":[4.027E3,1.719E3,2.308E3,7.17E2,1.002E3,4.28E2,1.88E3,6.81E2,3.6E1,7.93E2,2.09E2,2.56E2,1.72E2,9.75E2,9.05E2],"tree_param":{"num_deleted":"0","num_feature":"28","num_nodes":"15","size_leaf_vector":"1"}},{"base_weights":[-6.198529E-3,1.1977911E-2,-3.0655518E-1,1.7119081E-1,-1.926754E-2,-3.4139308E-1,2.4375075E-2,2.2249153E-2,7.375543E-3,-4.477914E-3,3.2093253E-3,-1.2201003E-2,-2.583741E-2],"categories":[],"categories_nodes":[],"categories_segments":[],"categories_sizes":[],"default_left":[0,0,0,0,0,0,0,0,0,0,0,0,0],"id":66,"left_children":[1,3,5,7,9,11,-1,-1,-1,-1,-1,-1,-1],"loss_changes":[2.2100086E1,1.8981966E1,6.5420322E0,3.93371E0,1.8703377E1,3.5884457E0,0E0,0E0,0E0,0E0,0E0,0E0,0E0],"parents":[2147483647,0,0,1,1,2,2,3,3,4,4,5,5],"right_children":[2,4,6,8,10,12,-1,-1,-1,-1,-1,-1,-1],"split_conditions":[6.828E1,4.11E0,3E0,3.1E-1,2.85E1,1.231E2,2.4375075E-2,2.2249153E-2,7.375543E-3,-4.477914E-3,3.2093253E-3,-1.2201003E-2,-2.583741E-2],"split_indices":[8,2,1,2,14,8,0,0,0,0,0,0,0],"split_type":[0,0,0,0,0,0,0,0,0,0,0,0,0],"sum_hessian":[4.041E3,3.811E3,2.3E2,6.25E2,3.186E3,2.21E2,9E0,4.8E1,5.77E2,1.73E3,1.456E3,1.44E2,7.7E1],"tree_param":{"num_deleted":"0","num_feature":"28","num_nodes":"13","size_leaf_vector":"1"}},{"base_weights":[1.1764421E-3,-6.1536204E-2,8.251915E-2,-6.9439754E-2,7.43596E-1,2.3621088E-2,1.7515141E-1,-4.473245E-3,1.2689324E-2,2.1866592E-2,5.2868992E-2,-2.7629497E-4,1.0599382E-2,1.297957E-2,5.4476713E-3],"categories":[],"categories_nodes":[],"categories_segments":[],"categories_sizes":[],"default_left":[0,0,0,0,0,0,0,0,0,0,0,0,0,0,0],"id":67,"left_children":[1,3,5,7,9,11,13,-1,-1,-1,-1,-1,-1,-1,-1],"loss_changes":[2.0488562E1,1.4410051E1,9.518286E0,1.4543845E1,1.5023193E0,5.901948E0,3.7303066E0,0E0,0E0,0E0,0E0,0E0,0E0,0E0,0E0],"parents":[2147483647,0,0,1,1,2,2,3,3,4,4,5,5,6,6],"right_children":[2,4,6,8,10,12,14,-1,-1,-1,-1,-1,-1,-1,-1],"split_conditions":[1E0,4.6681E3,1.96E1,1E0,1.00941E4,7.74E0,1.472E1,-4.473245E-3,1.2689324E-2,2.1866592E-2,5.2868992E-2,-2.7629497E-4,1.0599382E-2,1.297957E-2,5.4476713E-3],"split_indices":[6,18,22,5,18,21,2,0,0,0,0,0,0,0,0],"split_type":[0,0,0,0,0,0,0,0,0,0,0,0,0,0,0],"sum_hessian":[4.014E3,2.266E3,1.748E3,2.245E3,2.1E1,1.07E3,6.78E2,2.115E3,1.3E2,1.2E1,9E0,9.27E2,1.43E2,2.96E2,3.82E2],"tree_param":{"num_deleted":"0","num_feature":"28","num_nodes":"15","size_leaf_vector":"1"}},{"base_weights":[2.8531235E-3,4.2464573E-2,-1.245484E-1,-3.265364E-2,1.0771455E-1,-1.7858705E-1,4.613254E-2,-1.8905962E-3,5.9017725E-2,-4.5792125E-3,7.7051218E-3,-1.2696098E-2,-3.9861198E-3,-5.469284E-3,4.9291486E-3],"categories":[],"categories_nodes":[],"categories_segments":[],"categories_sizes":[],"default_left":[0,0,0,0,0,0,0,0,0,0,0,0,0,0,0],"id":68,"left_children":[1,3,5,7,9,11,13,-1,-1,-1,-1,-1,-1,-1,-1],"loss_changes":[2.032462E1,1.5078117E1,8.8298E0,8.871687E0,1.5237717E1,5.353613E0,1.8858125E0,0E0,0E0,0E0,0E0,0E0,0E0,0E0,0E0],"parents":[2147483647,0,0,1,1,2,2,3,3,4,4,5,5,6,6],"right_children":[2,4,6,8,10,12,14,-1,-1,-1,-1,-1,-1,-1,-1],"split_conditions":[3.699E1,3.913193E1,3.93E1,1.00941E4,-8.771722E1,1E0,1.39E1,-1.8905962E-3,5.9017725E-2,-4.5792125E-3,7.7051218E-3,-1.2696098E-2,-3.9861198E-3,-5.469284E-3,4.9291486E-3],"split_indices":[2,26,14,18,27,6,22,0,0,0,0,0,0,0,0],"split_type":[0,0,0,0,0,0,0,0,0,0,0,0,0,0,0],"sum_hessian":[4.027E3,3.073E3,9.54E2,1.428E3,1.645E3,7.25E2,2.29E2,1.423E3,5E0,3.1E2,1.335E3,4.1E2,3.15E2,5.7E1,1.72E2],"tree_param":{"num_deleted":"0","num_feature":"28","num_nodes":"15","size_leaf_vector":"1"}},{"base_weights":[-5.0133877E-3,1.503804E-2,-2.641964E-1,-4.734226E-2,9.792555E-2,-1.9321701E-1,-4.9288663E-1,-3.3756827E-3,1.5478224E-2,1.4806039E-3,8.040111E-3,-1.1543188E-2,7.6631675E-3,-3.5745773E-2,-1.6610596E-2],"categories":[],"categories_nodes":[],"categories_segments":[],"categories_sizes":[],"default_left":[0,0,0,0,0,0,0,0,0,0,0,0,0,0,0],"id":69,"left_children":[1,3,5,7,9,11,13,-1,-1,-1,-1,-1,-1,-1,-1],"loss_changes":[2.0770073E1,1.9166574E1,4.4948235E0,1.52160225E1,6.81435E0,2.9258366E0,2.0479698E0,0E0,0E0,0E0,0E0,0E0,0E0,0E0,0E0],"parents":[2147483647,0,0,1,1,2,2,3,3,4,4,5,5,6,6],"right_children":[2,4,6,8,10,12,14,-1,-1,-1,-1,-1,-1,-1,-1],"split_conditions":[5.963E1,1E0,1.3635E2,1E0,1.76E1,1E0,2.67E1,-3.3756827E-3,1.5478224E-2,1.4806039E-3,8.040111E-3,-1.1543188E-2,7.6631675E-3,-3.5745773E-2,-1.6610596E-2],"split_indices":[8,6,8,5,22,5,14,0,0,0,0,0,0,0,0],"split_type":[0,0,0,0,0,0,0,0,0,0,0,0,0,0,0],"sum_hessian":[3.99E3,3.704E3,2.86E2,2.113E3,1.591E3,2.2E2,6.6E1,2.001E3,1.12E2,7.64E2,8.27E2,1.99E2,2.1E1,2.6E1,4E1],"tree_param":{"num_deleted":"0","num_feature":"28","num_nodes":"15","size_leaf_vector":"1"}},{"base_weights":[6.6791824E-4,-1.2928882E-2,3.265971E-1,-5.2590918E-2,1.06996454E-1,2.5427932E-1,8.223394E-1,1.0140755E-2,-3.7191845E-3,-6.0382294E-3,7.1720383E-3,6.8652974E-3,1.7301936E-2,2.7551213E-2,6.1660346E-2],"categories":[],"categories_nodes":[],"categories_segments":[],"categories_sizes":[],"default_left":[0,0,0,0,0,0,0,0,0,0,0,0,0,0,0],"id":70,"left_children":[1,3,5,7,9,11,13,-1,-1,-1,-1,-1,-1,-1,-1],"loss_changes":[1.7925934E1,1.8436317E1,5.4910927E0,1.622158E1,8.0130625E0,1.4390297E0,1.371542E0,0E0,0E0,0E0,0E0,0E0,0E0,0E0,0E0],"parents":[2147483647,0,0,1,1,2,2,3,3,4,4,5,5,6,6],"right_children":[2,4,6,8,10,12,14,-1,-1,-1,-1,-1,-1,-1,-1],"split_conditions":[1.147E3,1E0,1.00941E4,2.24E0,-8.771722E1,2.366E2,3.25E1,1.0140755E-2,-3.7191845E-3,-6.0382294E-3,7.1720383E-3,6.8652974E-3,1.7301936E-2,2.7551213E-2,6.1660346E-2],"split_indices":[18,1,18,2,27,25,16,0,0,0,0,0,0,0,0],"split_type":[0,0,0,0,0,0,0,0,0,0,0,0,0,0,0],"sum_hessian":[4.036E3,3.875E3,1.61E2,2.913E3,9.62E2,1.42E2,1.9E1,2.28E2,2.685E3,1.32E2,8.3E2,6.4E1,7.8E1,1.3E1,6E0],"tree_param":{"num_deleted":"0","num_feature":"28","num_nodes":"15","size_leaf_vector":"1"}},{"base_weights":[1.8667313E-3,-1.2288638E-1,3.5204984E-2,-1.9933714E-1,-1.1015199E-2,1.6053583E-1,-4.479578E-2,-1.8596632E-2,-6.468189E-3,-4.0090107E-3,5.8675646E-3,-2.5582366E-4,1.3877936E-2,9.50451E-3,-3.680316E-3],"categories":[],"categories_nodes":[],"categories_segments":[],"categories_sizes":[],"default_left":[0,0,0,0,0,0,0,0,0,0,0,0,0,0,0],"id":71,"left_children":[1,3,5,7,9,11,13,-1,-1,-1,-1,-1,-1,-1,-1],"loss_changes":[1.659017E1,7.1695385E0,3.1602438E1,5.9282207E0,3.051007E0,2.3833584E1,1.3015651E1,0E0,0E0,0E0,0E0,0E0,0E0,0E0,0E0],"parents":[2147483647,0,0,1,1,2,2,3,3,4,4,5,5,6,6],"right_children":[2,4,6,8,10,12,14,-1,-1,-1,-1,-1,-1,-1,-1],"split_conditions":[-8.909096E1,1E0,-8.1509544E1,8.9E0,1.98E1,4.0738964E1,2.98E0,-1.8596632E-2,-6.468189E-3,-4.0090107E-3,5.8675646E-3,-2.5582366E-4,1.3877936E-2,9.50451E-3,-3.680316E-3],"split_indices":[27,6,27,17,22,26,2,0,0,0,0,0,0,0,0],"split_type":[0,0,0,0,0,0,0,0,0,0,0,0,0,0,0],"sum_hessian":[3.989E3,8.4E2,3.149E3,4.98E2,3.42E2,1.227E3,1.922E3,1.42E2,3.56E2,2.23E2,1.19E2,5.08E2,7.19E2,2.09E2,1.713E3],"tree_param":{"num_deleted":"0","num_feature":"28","num_nodes":"15","size_leaf_vector":"1"}},{"base_weights":[1.0937147E-2,-6.4900154E-3,2.666781E-1,-2.192341E-2,2.516709E-1,2.8710067E-1,-2.08911E-1,-4.0220856E-3,2.423355E-3,-2.979554E-3,1.3802868E-2,1.1444387E-2,2.1817861E-2,1.4098975E-3,-2.1393405E-2],"categories":[],"categories_nodes":[],"categories_segments":[],"categories_sizes":[],"default_left":[0,0,0,0,0,0,0,0,0,0,0,0,0,0,0],"id":72,"left_children":[1,3,5,7,9,11,13,-1,-1,-1,-1,-1,-1,-1,-1],"loss_changes":[1.8024466E1,1.5047178E1,2.5736885E0,1.4708282E1,1.654891E0,1.9883862E0,6.231156E-1,0E0,0E0,0E0,0E0,0E0,0E0,0E0,0E0],"parents":[2147483647,0,0,1,1,2,2,3,3,4,4,5,5,6,6],"right_children":[2,4,6,8,10,12,14,-1,-1,-1,-1,-1,-1,-1,-1],"split_conditions":[1.6E0,1E0,8.797E1,1.88E1,7.2E0,2.428E0,4.42E-1,-4.0220856E-3,2.423355E-3,-2.979554E-3,1.3802868E-2,1.1444387E-2,2.1817861E-2,1.4098975E-3,-2.1393405E-2],"split_indices":[4,5,8,22,14,4,12,0,0,0,0,0,0,0,0],"split_type":[0,0,0,0,0,0,0,0,0,0,0,0,0,0,0],"sum_hessian":[4.037E3,3.78E3,2.57E2,3.568E3,2.12E2,2.47E2,1E1,1.949E3,1.619E3,1.5E1,1.97E2,1.8E2,6.7E1,5E0,5E0],"tree_param":{"num_deleted":"0","num_feature":"28","num_nodes":"15","size_leaf_vector":"1"}},{"base_weights":[1.666396E-3,1.9766081E-2,-2.3974337E-1,6.0328227E-2,-7.6072015E-2,-1.8152468E-1,-4.5008487E-1,-2.944846E-3,4.7122E-3,-1.6771488E-2,-2.3552948E-3,-1.3442879E-2,-1.1044217E-3,1.5902068E-4,-2.6160423E-2],"categories":[],"categories_nodes":[],"categories_segments":[],"categories_sizes":[],"default_left":[0,0,0,0,0,0,0,0,0,0,0,0,0,0,0],"id":73,"left_children":[1,3,5,7,9,11,13,-1,-1,-1,-1,-1,-1,-1,-1],"loss_changes":[1.7355637E1,1.438639E1,3.2472277E0,1.0526524E1,8.209793E0,3.014329E0,2.0091848E0,0E0,0E0,0E0,0E0,0E0,0E0,0E0,0E0],"parents":[2147483647,0,0,1,1,2,2,3,3,4,4,5,5,6,6],"right_children":[2,4,6,8,10,12,14,-1,-1,-1,-1,-1,-1,-1,-1],"split_conditions":[5.963E1,3.061E1,1.3635E2,-8.771722E1,1.04E1,1.78E1,3.31E1,-2.944846E-3,4.7122E-3,-1.6771488E-2,-2.3552948E-3,-1.3442879E-2,-1.1044217E-3,1.5902068E-4,-2.6160423E-2],"split_indices":[8,2,8,27,14,17,15,0,0,0,0,0,0,0,0],"split_type":[0,0,0,0,0,0,0,0,0,0,0,0,0,0,0],"sum_hessian":[3.975E3,3.699E3,2.76E2,2.6E3,1.099E3,2.18E2,5.8E1,5.75E2,2.025E3,1.09E2,9.9E2,1.4E2,7.8E1,8E0,5E1],"tree_param":{"num_deleted":"0","num_feature":"28","num_nodes":"15","size_leaf_vector":"1"}},{"base_weights":[-1.6832688E-3,-8.630059E-2,4.7776856E-2,-9.6453644E-2,5.896396E-1,2.8783722E-2,2.580778E-1,3.5778836E-3,-6.743563E-3,5.375578E-2,1.8886406E-2,-4.251995E-3,3.4193546E-3,1.4037827E-2,-8.431674E-3],"categories":[],"categories_nodes":[],"categories_segments":[],"categories_sizes":[],"default_left":[0,0,0,0,0,0,0,0,0,0,0,0,0,0,0],"id":74,"left_children":[1,3,5,7,9,11,13,-1,-1,-1,-1,-1,-1,-1,-1],"loss_changes":[1.6865892E1,1.02126255E1,1.0117329E1,9.478418E0,1.7119284E0,1.0520844E1,2.090783E0,0E0,0E0,0E0,0E0,0E0,0E0,0E0,0E0],"parents":[2147483647,0,0,1,1,2,2,3,3,4,4,5,5,6,6],"right_children":[2,4,6,8,10,12,14,-1,-1,-1,-1,-1,-1,-1,-1],"split_conditions":[2.5E-1,3.3764E3,1.686E0,5.19E0,2.62E-1,1.43E1,8.797E1,3.5778836E-3,-6.743563E-3,5.375578E-2,1.8886406E-2,-4.251995E-3,3.4193546E-3,1.4037827E-2,-8.431674E-3],"split_indices":[4,18,4,2,9,22,8,0,0,0,0,0,0,0,0],"split_type":[0,0,0,0,0,0,0,0,0,0,0,0,0,0,0],"sum_hessian":[4.027E3,1.486E3,2.541E3,1.465E3,2.1E1,2.332E3,2.09E2,2.72E2,1.193E3,5E0,1.6E1,6.01E2,1.731E3,1.99E2,1E1],"tree_param":{"num_deleted":"0","num_feature":"28","num_nodes":"15","size_leaf_vector":"1"}},{"base_weights":[2.781223E-3,5.9135158E-2,-6.511166E-2,2.337702E-1,3.1035848E-2,-2.552989E-1,-3.8923193E-2,2.3272574E-2,1.0269541E-2,-7.1026204E-4,6.407986E-3,-1.6290687E-3,-1.895718E-2,-2.775978E-3,1.2154413E-2],"categories":[],"categories_nodes":[],"categories_segments":[],"categories_sizes":[],"default_left":[0,0,0,0,0,0,0,0,0,0,0,0,0,0,0],"id":75,"left_children":[1,3,5,7,9,11,13,-1,-1,-1,-1,-1,-1,-1,-1],"loss_changes":[1.5383898E1,1.0752123E1,9.04048E0,1.8361073E0,8.339827E0,6.014599E0,7.502047E0,0E0,0E0,0E0,0E0,0E0,0E0,0E0,0E0],"parents":[2147483647,0,0,1,1,2,2,3,3,4,4,5,5,6,6],"right_children":[2,4,6,8,10,12,14,-1,-1,-1,-1,-1,-1,-1,-1],"split_conditions":[1.258E1,3.43E0,1.08E1,3.1E-1,6.35E-1,1.178E1,1E0,2.3272574E-2,1.0269541E-2,-7.1026204E-4,6.407986E-3,-1.6290687E-3,-1.895718E-2,-2.775978E-3,1.2154413E-2],"split_indices":[8,2,14,2,4,2,5,0,0,0,0,0,0,0,0],"split_type":[0,0,0,0,0,0,0,0,0,0,0,0,0,0,0],"sum_hessian":[4.019E3,2.197E3,1.822E3,3.03E2,1.894E3,2.19E2,1.603E3,3.1E1,2.72E2,1.292E3,6.02E2,7.9E1,1.4E2,1.515E3,8.8E1],"tree_param":{"num_deleted":"0","num_feature":"28","num_nodes":"15","size_leaf_vector":"1"}},{"base_weights":[-4.3966654E-3,-1.91216E-2,2.4776833E-1,5.7848226E-3,-1.7836903E-1,5.288292E-1,2.1176209E-1,2.120863E-3,-5.247244E-3,-1.19214235E-2,2.3511704E-3,3.3706777E-2,1.2399342E-2,1.9235468E-2,7.94288E-3],"categories":[],"categories_nodes":[],"categories_segments":[],"categories_sizes":[],"default_left":[0,0,0,0,0,0,0,0,0,0,0,0,0,0,0],"id":76,"left_children":[1,3,5,7,9,11,13,-1,-1,-1,-1,-1,-1,-1,-1],"loss_changes":[1.4808333E1,1.4987044E1,2.0403414E0,1.3237958E1,6.947733E0,7.2000694E-1,1.6870193E0,0E0,0E0,0E0,0E0,0E0,0E0,0E0,0E0],"parents":[2147483647,0,0,1,1,2,2,3,3,4,4,5,5,6,6],"right_children":[2,4,6,8,10,12,14,-1,-1,-1,-1,-1,-1,-1,-1],"split_conditions":[1E0,5.119E1,7.3E1,2.423E1,3.93E1,2.98E1,4.84E0,2.120863E-3,-5.247244E-3,-1.19214235E-2,2.3511704E-3,3.3706777E-2,1.2399342E-2,1.9235468E-2,7.94288E-3],"split_indices":[5,2,25,8,14,14,8,0,0,0,0,0,0,0,0],"split_type":[0,0,0,0,0,0,0,0,0,0,0,0,0,0,0],"sum_hessian":[3.992E3,3.773E3,2.19E2,3.263E3,5.1E2,2.3E1,1.96E2,2.453E3,8.1E2,4.03E2,1.07E2,1.4E1,9E0,4.4E1,1.52E2],"tree_param":{"num_deleted":"0","num_feature":"28","num_nodes":"15","size_leaf_vector":"1"}},{"base_weights":[3.488081E-3,-4.7899082E-2,6.992684E-2,-5.8294922E-2,4.8760465E-1,1.4486729E-1,2.0726042E-2,-6.520991E-3,3.8192686E-4,1.633451E-2,4.5846473E-2,3.962134E-3,1.2022385E-2,1.6085872E-4,1.2790087E-2],"categories":[],"categories_nodes":[],"categories_segments":[],"categories_sizes":[],"default_left":[0,0,0,0,0,0,0,0,0,0,0,0,0,0,0],"id":77,"left_children":[1,3,5,7,9,11,13,-1,-1,-1,-1,-1,-1,-1,-1],"loss_changes":[1.370292E1,1.2578072E1,6.4366026E0,1.057036E1,2.5467224E0,4.2957716E0,4.332023E0,0E0,0E0,0E0,0E0,0E0,0E0,0E0,0E0],"parents":[2147483647,0,0,1,1,2,2,3,3,4,4,5,5,6,6],"right_children":[2,4,6,8,10,12,14,-1,-1,-1,-1,-1,-1,-1,-1],"split_conditions":[1E0,2.2408E3,8.22E0,3.882413E1,1.00941E4,7.31E0,7.726E2,-6.520991E-3,3.8192686E-4,1.633451E-2,4.5846473E-2,3.962134E-3,1.2022385E-2,1.6085872E-4,1.2790087E-2],"split_indices":[6,18,8,26,18,21,18,0,0,0,0,0,0,0,0],"split_type":[0,0,0,0,0,0,0,0,0,0,0,0,0,0,0],"sum_hessian":[4.011E3,2.261E3,1.75E3,2.219E3,4.2E1,6.92E2,1.058E3,1.06E3,1.159E3,3.2E1,1E1,4.12E2,2.8E2,9.86E2,7.2E1],"tree_param":{"num_deleted":"0","num_feature":"28","num_nodes":"15","size_leaf_vector":"1"}},{"base_weights":[4.3952456E-3,-4.726199E-2,6.991308E-2,1.9625586E-1,-6.678765E-2,1.2815501E-1,8.7072775E-3,2.0925649E-2,5.9603713E-3,-3.8140602E-3,2.2049641E-2,2.7134826E-3,8.6633125E-3,5.110347E-3,-1.6933981E-3],"categories":[],"categories_nodes":[],"categories_segments":[],"categories_sizes":[],"default_left":[0,0,0,0,0,0,0,0,0,0,0,0,0,0,0],"id":78,"left_children":[1,3,5,7,9,11,13,-1,-1,-1,-1,-1,-1,-1,-1],"loss_changes":[1.3553604E1,1.0641511E1,6.2805357E0,2.739016E0,9.990356E0,2.9809294E0,3.445701E0,0E0,0E0,0E0,0E0,0E0,0E0,0E0,0E0],"parents":[2147483647,0,0,1,1,2,2,3,3,4,4,5,5,6,6],"right_children":[2,4,6,8,10,12,14,-1,-1,-1,-1,-1,-1,-1,-1],"split_conditions":[1E0,1.92E0,2.767E2,4.7E-1,2.2408E3,3.7394573E1,9.07E0,2.0925649E-2,5.9603713E-3,-3.8140602E-3,2.2049641E-2,2.7134826E-3,8.6633125E-3,5.110347E-3,-1.6933981E-3],"split_indices":[6,2,11,2,18,26,2,0,0,0,0,0,0,0,0],"split_type":[0,0,0,0,0,0,0,0,0,0,0,0,0,0,0],"sum_hessian":[4.002E3,2.237E3,1.765E3,1.65E2,2.072E3,9.03E2,8.62E2,4.1E1,1.24E2,2.035E3,3.7E1,3.44E2,5.59E2,2.7E2,5.92E2],"tree_param":{"num_deleted":"0","num_feature":"28","num_nodes":"15","size_leaf_vector":"1"}},{"base_weights":[3.9788915E-4,-5.115702E-2,6.483238E-2,-8.836614E-2,6.281279E-2,9.364312E-2,-7.5705394E-2,-5.945462E-3,3.5409704E-3,4.158433E-3,-1.658093E-2,1.906982E-3,8.434398E-3,-6.561552E-3,6.693569E-3],"categories":[],"categories_nodes":[],"categories_segments":[],"categories_sizes":[],"default_left":[0,0,0,0,0,0,0,0,0,0,0,0,0,0,0],"id":79,"left_children":[1,3,5,7,9,11,13,-1,-1,-1,-1,-1,-1,-1,-1],"loss_changes":[1.3395322E1,9.503069E0,7.2687345E0,8.225182E0,4.4267116E0,6.174938E0,3.5665545E0,0E0,0E0,0E0,0E0,0E0,0E0,0E0,0E0],"parents":[2147483647,0,0,1,1,2,2,3,3,4,4,5,5,6,6],"right_children":[2,4,6,8,10,12,14,-1,-1,-1,-1,-1,-1,-1,-1],"split_conditions":[1.89E1,1E0,3.276E1,1E0,4.6151726E1,1E0,2.3E1,-5.945462E-3,3.5409704E-3,4.158433E-3,-1.658093E-2,1.906982E-3,8.434398E-3,-6.561552E-3,6.693569E-3],"split_indices":[22,1,8,7,26,6,17,0,0,0,0,0,0,0,0],"split_type":[0,0,0,0,0,0,0,0,0,0,0,0,0,0,0],"sum_hessian":[4.03E3,2.238E3,1.792E3,1.688E3,5.5E2,1.488E3,3.04E2,1.417E3,2.71E2,5.24E2,2.6E1,8.57E2,6.31E2,2.41E2,6.3E1],"tree_param":{"num_deleted":"0","num_feature":"28","num_nodes":"15","size_leaf_vector":"1"}},{"base_weights":[7.5041507E-3,4.0622883E-2,-8.998606E-2,3.682727E-2,8.322656E-1,-3.5585108E-1,-5.691145E-2,1.8218768E-4,6.225345E-3,5.0886292E-2,2.4356516E-2,-2.0674113E-2,2.1266762E-2,-7.873664E-3,1.3715097E-4],"categories":[],"categories_nodes":[],"categories_segments":[],"categories_sizes":[],"default_left":[0,0,0,0,0,0,0,0,0,0,0,0,0,0,0],"id":80,"left_children":[1,3,5,7,9,11,13,-1,-1,-1,-1,-1,-1,-1,-1],"loss_changes":[1.2839467E1,8.806601E0,8.802201E0,8.590178E0,2.4987411E-1,5.171978E0,5.4029737E0,0E0,0E0,0E0,0E0,0E0,0E0,0E0,0E0],"parents":[2147483647,0,0,1,1,2,2,3,3,4,4,5,5,6,6],"right_children":[2,4,6,8,10,12,14,-1,-1,-1,-1,-1,-1,-1,-1],"split_conditions":[3.523E1,1.00941E4,1.09E1,1E0,1.488E1,1.961E2,2.5E-1,1.8218768E-4,6.225345E-3,5.0886292E-2,2.4356516E-2,-2.0674113E-2,2.1266762E-2,-7.873664E-3,1.3715097E-4],"split_indices":[2,18,14,1,2,18,4,0,0,0,0,0,0,0,0],"split_type":[0,0,0,0,0,0,0,0,0,0,0,0,0,0,0],"sum_hessian":[3.976E3,2.969E3,1.007E3,2.956E3,1.3E1,1.1E2,8.97E2,2.146E3,8.1E2,7E0,6E0,1.03E2,7E0,3.34E2,5.63E2],"tree_param":{"num_deleted":"0","num_feature":"28","num_nodes":"15","size_leaf_vector":"1"}},{"base_weights":[-4.363252E-3,-1.8508421E-2,2.1964604E-1,-2.4422633E-2,5.911845E-1,4.4091764E-1,1.9562927E-1,1.3725696E-3,-4.4655404E-3,1.8265346E-2,3.843978E-2,5.8077537E-3,2.890316E-2,-5.480672E-4,1.1477346E-2],"categories":[],"categories_nodes":[],"categories_segments":[],"categories_sizes":[],"default_left":[0,0,0,0,0,0,0,0,0,0,0,0,0,0,0],"id":81,"left_children":[1,3,5,7,9,11,13,-1,-1,-1,-1,-1,-1,-1,-1],"loss_changes":[1.2645874E1,1.3515768E1,1.109561E0,1.2547026E1,1.050005E0,8.43307E-1,1.5379009E0,0E0,0E0,0E0,0E0,0E0,0E0,0E0,0E0],"parents":[2147483647,0,0,1,1,2,2,3,3,4,4,5,5,6,6],"right_children":[2,4,6,8,10,12,14,-1,-1,-1,-1,-1,-1,-1,-1],"split_conditions":[1E0,4.6681E3,7.3E1,1.301E1,1.00941E4,7.55E-1,1.307E2,1.3725696E-3,-4.4655404E-3,1.8265346E-2,3.843978E-2,5.8077537E-3,2.890316E-2,-5.480672E-4,1.1477346E-2],"split_indices":[5,18,25,8,18,9,25,0,0,0,0,0,0,0,0],"split_type":[0,0,0,0,0,0,0,0,0,0,0,0,0,0,0],"sum_hessian":[3.995E3,3.759E3,2.36E2,3.724E3,3.5E1,2.1E1,2.15E2,2.069E3,1.655E3,1.7E1,1.8E1,7E0,1.4E1,3E1,1.85E2],"tree_param":{"num_deleted":"0","num_feature":"28","num_nodes":"15","size_leaf_vector":"1"}},{"base_weights":[4.7646486E-3,-2.2992158E-2,1.4107996E-1,1.0437282E-1,-5.3130236E-2,4.3609813E-2,2.0093419E-1,4.802591E-3,4.7478136E-2,-5.9068E-3,9.7372866E-4,3.5064227E-3,-1.3722311E-2,1.752275E-4,1.180189E-2],"categories":[],"categories_nodes":[],"categories_segments":[],"categories_sizes":[],"default_left":[0,0,0,0,0,0,0,0,0,0,0,0,0,0,0],"id":82,"left_children":[1,3,5,7,9,11,13,-1,-1,-1,-1,-1,-1,-1,-1],"loss_changes":[1.522922E1,1.282497E1,3.9397383E0,4.2982044E0,1.2769598E1,2.2001965E0,2.8929577E0,0E0,0E0,0E0,0E0,0E0,0E0,0E0,0E0],"parents":[2147483647,0,0,1,1,2,2,3,3,4,4,5,5,6,6],"right_children":[2,4,6,8,10,12,14,-1,-1,-1,-1,-1,-1,-1,-1],"split_conditions":[1E0,5.19E0,3.696602E1,4.6681E3,4.12E-1,6.176E1,-9.049757E1,4.802591E-3,4.7478136E-2,-5.9068E-3,9.7372866E-4,3.5064227E-3,-1.3722311E-2,1.752275E-4,1.180189E-2],"split_indices":[7,2,26,18,4,8,27,0,0,0,0,0,0,0,0],"split_type":[0,0,0,0,0,0,0,0,0,0,0,0,0,0,0],"sum_hessian":[4.02E3,3.34E3,6.8E2,6.38E2,2.702E3,2.6E2,4.2E2,6.33E2,5E0,1.426E3,1.276E3,2.41E2,1.9E1,6.4E1,3.56E2],"tree_param":{"num_deleted":"0","num_feature":"28","num_nodes":"15","size_leaf_vector":"1"}},{"base_weights":[-5.1174634E-3,-5.706008E-2,6.128305E-2,1.4336757E-1,-7.830154E-2,1.3414332E-1,-9.65552E-2,-6.604829E-3,8.24327E-3,-6.3361847E-3,1.4429053E-3,-3.168701E-3,1.1765512E-2,-3.7690797E-3,-3.307955E-2],"categories":[],"categories_nodes":[],"categories_segments":[],"categories_sizes":[],"default_left":[0,0,0,0,0,0,0,0,0,0,0,0,0,0,0],"id":83,"left_children":[1,3,5,7,9,11,13,-1,-1,-1,-1,-1,-1,-1,-1],"loss_changes":[1.3985387E1,9.694507E0,2.0475456E1,1.3160253E0,1.0697391E1,2.4370445E1,6.6001143E0,0E0,0E0,0E0,0E0,0E0,0E0,0E0,0E0],"parents":[2147483647,0,0,1,1,2,2,3,3,4,4,5,5,6,6],"right_children":[2,4,6,8,10,12,14,-1,-1,-1,-1,-1,-1,-1,-1],"split_conditions":[4.0534164E1,2.78E0,-7.963474E1,-1.13957855E2,1.97E1,-8.755354E1,3.1965E3,-6.604829E-3,8.24327E-3,-6.3361847E-3,1.4429053E-3,-3.168701E-3,1.1765512E-2,-3.7690797E-3,-3.307955E-2],"split_indices":[26,2,27,27,17,27,11,0,0,0,0,0,0,0,0],"split_type":[0,0,0,0,0,0,0,0,0,0,0,0,0,0,0],"sum_hessian":[4.053E3,2.275E3,1.778E3,2.17E2,2.058E3,1.217E3,5.61E2,1.5E1,2.02E2,1.418E3,6.4E2,4.12E2,8.05E2,5.42E2,1.9E1],"tree_param":{"num_deleted":"0","num_feature":"28","num_nodes":"15","size_leaf_vector":"1"}},{"base_weights":[8.40248E-3,-1.7403714E-2,1.3278945E-1,-4.7640882E-2,8.598831E-2,1.532503E-1,-8.555317E-2,-6.535777E-4,-7.4444013E-3,5.8996705E-3,5.6210434E-4,2.167653E-3,9.19542E-3,3.0853215E-3,-1.271829E-2],"categories":[],"categories_nodes":[],"categories_segments":[],"categories_sizes":[],"default_left":[0,0,0,0,0,0,0,0,0,0,0,0,0,0,0],"id":84,"left_children":[1,3,5,7,9,11,13,-1,-1,-1,-1,-1,-1,-1,-1],"loss_changes":[1.2815147E1,1.0326371E1,3.084571E0,8.931473E0,1.7727685E0,2.085185E0,1.5016595E0,0E0,0E0,0E0,0E0,0E0,0E0,0E0,0E0],"parents":[2147483647,0,0,1,1,2,2,3,3,4,4,5,5,6,6],"right_children":[2,4,6,8,10,12,14,-1,-1,-1,-1,-1,-1,-1,-1],"split_conditions":[1E0,4.02E1,5.506E1,2.331E1,-7.8178825E1,1.57E1,-8.252496E1,-6.535777E-4,-7.4444013E-3,5.8996705E-3,5.6210434E-4,2.167653E-3,9.19542E-3,3.0853215E-3,-1.271829E-2],"split_indices":[7,14,8,8,27,14,27,0,0,0,0,0,0,0,0],"split_type":[0,0,0,0,0,0,0,0,0,0,0,0,0,0,0],"sum_hessian":[3.987E3,3.302E3,6.85E2,2.556E3,7.46E2,6.27E2,5.8E1,1.907E3,6.49E2,5.21E2,2.25E2,1.38E2,4.89E2,3.1E1,2.7E1],"tree_param":{"num_deleted":"0","num_feature":"28","num_nodes":"15","size_leaf_vector":"1"}},{"base_weights":[-4.105915E-3,-2.8132048E-2,1.14771836E-1,1.2058599E-1,-4.9775477E-2,1.3565968E-1,-1.0249966E-1,1.0148902E-2,1.7983256E-3,-4.321625E-3,2.5341595E-3,1.1599512E-2,4.742396E-3,-1.1950346E-2,1.704546E-3],"categories":[],"categories_nodes":[],"categories_segments":[],"categories_sizes":[],"default_left":[0,0,0,0,0,0,0,0,0,0,0,0,0,0,0],"id":85,"left_children":[1,3,5,7,9,11,13,-1,-1,-1,-1,-1,-1,-1,-1],"loss_changes":[1.1402118E1,1.0698109E1,3.0624418E0,2.9109778E0,1.0698298E1,2.3552732E0,1.1287303E0,0E0,0E0,0E0,0E0,0E0,0E0,0E0,0E0],"parents":[2147483647,0,0,1,1,2,2,3,3,4,4,5,5,6,6],"right_children":[2,4,6,8,10,12,14,-1,-1,-1,-1,-1,-1,-1,-1],"split_conditions":[1E0,3.2E0,5.506E1,1.248E1,3.81E1,6.2E0,7.1E0,1.0148902E-2,1.7983256E-3,-4.321625E-3,2.5341595E-3,1.1599512E-2,4.742396E-3,-1.1950346E-2,1.704546E-3],"split_indices":[7,2,8,8,14,16,21,0,0,0,0,0,0,0,0],"split_type":[0,0,0,0,0,0,0,0,0,0,0,0,0,0,0],"sum_hessian":[3.993E3,3.323E3,6.7E2,4.21E2,2.902E3,6.12E2,5.8E1,2.12E2,2.09E2,2.127E3,7.75E2,1.8E2,4.32E2,2.9E1,2.9E1],"tree_param":{"num_deleted":"0","num_feature":"28","num_nodes":"15","size_leaf_vector":"1"}},{"base_weights":[-4.686677E-3,-6.1432518E-2,4.349424E-2,-1.7811756E-1,-2.9145883E-2,1.2994773E-2,1.602138E-1,-7.6463963E-3,-3.0974334E-2,-2.2337732E-3,1.0798774E-2,-8.358263E-4,7.0822723E-3,5.9515564E-3,1.2571843E-2],"categories":[],"categories_nodes":[],"categories_segments":[],"categories_sizes":[],"default_left":[0,0,0,0,0,0,0,0,0,0,0,0,0,0,0],"id":86,"left_children":[1,3,5,7,9,11,13,-1,-1,-1,-1,-1,-1,-1,-1],"loss_changes":[1.0981744E1,6.924874E0,7.709106E0,4.2640743E0,5.5007153E0,6.6008196E0,1.619832E0,0E0,0E0,0E0,0E0,0E0,0E0,0E0,0E0],"parents":[2147483647,0,0,1,1,2,2,3,3,4,